digraph Tree {
node [shape=box, style="filled", color="black", fontname="helvetica"] ;
edge [fontname="helvetica"] ;
0 [label="tBodyAcc-mean()-X <= 0.259\ngini = 0.831\nsamples = 7352\nvalue = [1226, 1073, 986, 1286, 1374, 1407]\nclass = 6", fillcolor="#fffefe"] ;
1 [label="tBodyAcc-mean()-Y <= -0.052\ngini = 0.765\nsamples = 1648\nvalue = [455, 490, 376, 89, 34, 204]\nclass = 2", fillcolor="#fcfef9"] ;
0 -> 1 [labeldistance=2.5, labelangle=45, headlabel="True"] ;
2 [label="tBodyAcc-mean()-Z <= 0.057\ngini = 0.583\nsamples = 232\nvalue = [29, 141, 20, 3, 3, 36]\nclass = 2", fillcolor="#caf195"] ;
1 -> 2 ;
3 [label="tBodyAcc-mean()-Y <= -0.072\ngini = 0.531\nsamples = 214\nvalue = [29, 141, 20, 3, 3, 18]\nclass = 2", fillcolor="#c4ef87"] ;
2 -> 3 ;
4 [label="tBodyAcc-mean()-Y <= -0.22\ngini = 0.311\nsamples = 102\nvalue = [6, 84, 2, 0, 2, 8]\nclass = 2", fillcolor="#b0ea5f"] ;
3 -> 4 ;
5 [label="gini = 0.0\nsamples = 3\nvalue = [0, 0, 0, 0, 0, 3]\nclass = 6", fillcolor="#e5399d"] ;
4 -> 5 ;
6 [label="tBodyAcc-mean()-Z <= -0.436\ngini = 0.273\nsamples = 99\nvalue = [6, 84, 2, 0, 2, 5]\nclass = 2", fillcolor="#ade959"] ;
4 -> 6 ;
7 [label="gini = 0.0\nsamples = 1\nvalue = [0, 0, 0, 0, 0, 1]\nclass = 6", fillcolor="#e5399d"] ;
6 -> 7 ;
8 [label="tBodyAcc-mean()-X <= 0.155\ngini = 0.259\nsamples = 98\nvalue = [6, 84, 2, 0, 2, 4]\nclass = 2", fillcolor="#ace957"] ;
6 -> 8 ;
9 [label="tBodyAcc-mean()-Z <= -0.019\ngini = 0.056\nsamples = 35\nvalue = [0, 34, 0, 0, 1, 0]\nclass = 2", fillcolor="#a0e63f"] ;
8 -> 9 ;
10 [label="gini = 0.0\nsamples = 32\nvalue = [0, 32, 0, 0, 0, 0]\nclass = 2", fillcolor="#9de539"] ;
9 -> 10 ;
11 [label="tBodyAcc-mean()-X <= 0.112\ngini = 0.444\nsamples = 3\nvalue = [0, 2, 0, 0, 1, 0]\nclass = 2", fillcolor="#cef29c"] ;
9 -> 11 ;
12 [label="gini = 0.0\nsamples = 1\nvalue = [0, 0, 0, 0, 1, 0]\nclass = 5", fillcolor="#8139e5"] ;
11 -> 12 ;
13 [label="gini = 0.0\nsamples = 2\nvalue = [0, 2, 0, 0, 0, 0]\nclass = 2", fillcolor="#9de539"] ;
11 -> 13 ;
14 [label="tBodyAcc-mean()-X <= 0.161\ngini = 0.356\nsamples = 63\nvalue = [6, 50, 2, 0, 1, 4]\nclass = 2", fillcolor="#b3eb66"] ;
8 -> 14 ;
15 [label="gini = 0.0\nsamples = 1\nvalue = [0, 0, 1, 0, 0, 0]\nclass = 3", fillcolor="#39e581"] ;
14 -> 15 ;
16 [label="tBodyAcc-mean()-Z <= -0.179\ngini = 0.336\nsamples = 62\nvalue = [6, 50, 1, 0, 1, 4]\nclass = 2", fillcolor="#b2eb63"] ;
14 -> 16 ;
17 [label="gini = 0.0\nsamples = 16\nvalue = [0, 16, 0, 0, 0, 0]\nclass = 2", fillcolor="#9de539"] ;
16 -> 17 ;
18 [label="tBodyAcc-mean()-Z <= -0.179\ngini = 0.428\nsamples = 46\nvalue = [6, 34, 1, 0, 1, 4]\nclass = 2", fillcolor="#baed74"] ;
16 -> 18 ;
19 [label="gini = 0.0\nsamples = 1\nvalue = [0, 0, 1, 0, 0, 0]\nclass = 3", fillcolor="#39e581"] ;
18 -> 19 ;
20 [label="tBodyAcc-mean()-Z <= -0.095\ngini = 0.403\nsamples = 45\nvalue = [6, 34, 0, 0, 1, 4]\nclass = 2", fillcolor="#b9ec71"] ;
18 -> 20 ;
21 [label="tBodyAcc-mean()-X <= 0.19\ngini = 0.51\nsamples = 20\nvalue = [5, 13, 0, 0, 1, 1]\nclass = 2", fillcolor="#cbf195"] ;
20 -> 21 ;
22 [label="gini = 0.0\nsamples = 6\nvalue = [0, 6, 0, 0, 0, 0]\nclass = 2", fillcolor="#9de539"] ;
21 -> 22 ;
23 [label="tBodyAcc-mean()-Z <= -0.098\ngini = 0.612\nsamples = 14\nvalue = [5, 7, 0, 0, 1, 1]\nclass = 2", fillcolor="#e9f9d3"] ;
21 -> 23 ;
24 [label="tBodyAcc-mean()-Y <= -0.099\ngini = 0.556\nsamples = 13\nvalue = [5, 7, 0, 0, 0, 1]\nclass = 2", fillcolor="#e6f8ce"] ;
23 -> 24 ;
25 [label="tBodyAcc-mean()-Z <= -0.151\ngini = 0.375\nsamples = 8\nvalue = [2, 6, 0, 0, 0, 0]\nclass = 2", fillcolor="#beee7b"] ;
24 -> 25 ;
26 [label="gini = 0.0\nsamples = 3\nvalue = [0, 3, 0, 0, 0, 0]\nclass = 2", fillcolor="#9de539"] ;
25 -> 26 ;
27 [label="tBodyAcc-mean()-X <= 0.251\ngini = 0.48\nsamples = 5\nvalue = [2, 3, 0, 0, 0, 0]\nclass = 2", fillcolor="#def6bd"] ;
25 -> 27 ;
28 [label="tBodyAcc-mean()-Z <= -0.142\ngini = 0.375\nsamples = 4\nvalue = [1, 3, 0, 0, 0, 0]\nclass = 2", fillcolor="#beee7b"] ;
27 -> 28 ;
29 [label="gini = 0.0\nsamples = 1\nvalue = [1, 0, 0, 0, 0, 0]\nclass = 1", fillcolor="#e58139"] ;
28 -> 29 ;
30 [label="gini = 0.0\nsamples = 3\nvalue = [0, 3, 0, 0, 0, 0]\nclass = 2", fillcolor="#9de539"] ;
28 -> 30 ;
31 [label="gini = 0.0\nsamples = 1\nvalue = [1, 0, 0, 0, 0, 0]\nclass = 1", fillcolor="#e58139"] ;
27 -> 31 ;
32 [label="tBodyAcc-mean()-X <= 0.238\ngini = 0.56\nsamples = 5\nvalue = [3, 1, 0, 0, 0, 1]\nclass = 1", fillcolor="#f2c09c"] ;
24 -> 32 ;
33 [label="tBodyAcc-mean()-Z <= -0.149\ngini = 0.375\nsamples = 4\nvalue = [3, 0, 0, 0, 0, 1]\nclass = 1", fillcolor="#eeab7b"] ;
32 -> 33 ;
34 [label="tBodyAcc-mean()-Z <= -0.163\ngini = 0.5\nsamples = 2\nvalue = [1, 0, 0, 0, 0, 1]\nclass = 1", fillcolor="#ffffff"] ;
33 -> 34 ;
35 [label="gini = 0.0\nsamples = 1\nvalue = [1, 0, 0, 0, 0, 0]\nclass = 1", fillcolor="#e58139"] ;
34 -> 35 ;
36 [label="gini = 0.0\nsamples = 1\nvalue = [0, 0, 0, 0, 0, 1]\nclass = 6", fillcolor="#e5399d"] ;
34 -> 36 ;
37 [label="gini = 0.0\nsamples = 2\nvalue = [2, 0, 0, 0, 0, 0]\nclass = 1", fillcolor="#e58139"] ;
33 -> 37 ;
38 [label="gini = 0.0\nsamples = 1\nvalue = [0, 1, 0, 0, 0, 0]\nclass = 2", fillcolor="#9de539"] ;
32 -> 38 ;
39 [label="gini = 0.0\nsamples = 1\nvalue = [0, 0, 0, 0, 1, 0]\nclass = 5", fillcolor="#8139e5"] ;
23 -> 39 ;
40 [label="tBodyAcc-mean()-X <= 0.179\ngini = 0.278\nsamples = 25\nvalue = [1, 21, 0, 0, 0, 3]\nclass = 2", fillcolor="#afea5d"] ;
20 -> 40 ;
41 [label="tBodyAcc-mean()-X <= 0.168\ngini = 0.444\nsamples = 3\nvalue = [0, 1, 0, 0, 0, 2]\nclass = 6", fillcolor="#f29cce"] ;
40 -> 41 ;
42 [label="gini = 0.0\nsamples = 1\nvalue = [0, 1, 0, 0, 0, 0]\nclass = 2", fillcolor="#9de539"] ;
41 -> 42 ;
43 [label="gini = 0.0\nsamples = 2\nvalue = [0, 0, 0, 0, 0, 2]\nclass = 6", fillcolor="#e5399d"] ;
41 -> 43 ;
44 [label="tBodyAcc-mean()-Z <= -0.003\ngini = 0.169\nsamples = 22\nvalue = [1, 20, 0, 0, 0, 1]\nclass = 2", fillcolor="#a6e74c"] ;
40 -> 44 ;
45 [label="tBodyAcc-mean()-X <= 0.183\ngini = 0.095\nsamples = 20\nvalue = [1, 19, 0, 0, 0, 0]\nclass = 2", fillcolor="#a2e643"] ;
44 -> 45 ;
46 [label="tBodyAcc-mean()-Y <= -0.1\ngini = 0.375\nsamples = 4\nvalue = [1, 3, 0, 0, 0, 0]\nclass = 2", fillcolor="#beee7b"] ;
45 -> 46 ;
47 [label="gini = 0.0\nsamples = 1\nvalue = [1, 0, 0, 0, 0, 0]\nclass = 1", fillcolor="#e58139"] ;
46 -> 47 ;
48 [label="gini = 0.0\nsamples = 3\nvalue = [0, 3, 0, 0, 0, 0]\nclass = 2", fillcolor="#9de539"] ;
46 -> 48 ;
49 [label="gini = 0.0\nsamples = 16\nvalue = [0, 16, 0, 0, 0, 0]\nclass = 2", fillcolor="#9de539"] ;
45 -> 49 ;
50 [label="tBodyAcc-mean()-Y <= -0.079\ngini = 0.5\nsamples = 2\nvalue = [0, 1, 0, 0, 0, 1]\nclass = 2", fillcolor="#ffffff"] ;
44 -> 50 ;
51 [label="gini = 0.0\nsamples = 1\nvalue = [0, 0, 0, 0, 0, 1]\nclass = 6", fillcolor="#e5399d"] ;
50 -> 51 ;
52 [label="gini = 0.0\nsamples = 1\nvalue = [0, 1, 0, 0, 0, 0]\nclass = 2", fillcolor="#9de539"] ;
50 -> 52 ;
53 [label="tBodyAcc-mean()-Z <= -0.071\ngini = 0.664\nsamples = 112\nvalue = [23, 57, 18, 3, 1, 10]\nclass = 2", fillcolor="#daf5b3"] ;
3 -> 53 ;
54 [label="tBodyAcc-mean()-X <= 0.18\ngini = 0.579\nsamples = 80\nvalue = [19, 47, 11, 2, 1, 0]\nclass = 2", fillcolor="#d2f3a4"] ;
53 -> 54 ;
55 [label="tBodyAcc-mean()-Y <= -0.07\ngini = 0.245\nsamples = 21\nvalue = [0, 18, 3, 0, 0, 0]\nclass = 2", fillcolor="#ade95a"] ;
54 -> 55 ;
56 [label="gini = 0.0\nsamples = 1\nvalue = [0, 0, 1, 0, 0, 0]\nclass = 3", fillcolor="#39e581"] ;
55 -> 56 ;
57 [label="tBodyAcc-mean()-Z <= -0.132\ngini = 0.18\nsamples = 20\nvalue = [0, 18, 2, 0, 0, 0]\nclass = 2", fillcolor="#a8e84f"] ;
55 -> 57 ;
58 [label="gini = 0.0\nsamples = 11\nvalue = [0, 11, 0, 0, 0, 0]\nclass = 2", fillcolor="#9de539"] ;
57 -> 58 ;
59 [label="tBodyAcc-mean()-Z <= -0.105\ngini = 0.346\nsamples = 9\nvalue = [0, 7, 2, 0, 0, 0]\nclass = 2", fillcolor="#b9ec72"] ;
57 -> 59 ;
60 [label="tBodyAcc-mean()-X <= 0.165\ngini = 0.444\nsamples = 3\nvalue = [0, 1, 2, 0, 0, 0]\nclass = 3", fillcolor="#9cf2c0"] ;
59 -> 60 ;
61 [label="gini = 0.0\nsamples = 2\nvalue = [0, 0, 2, 0, 0, 0]\nclass = 3", fillcolor="#39e581"] ;
60 -> 61 ;
62 [label="gini = 0.0\nsamples = 1\nvalue = [0, 1, 0, 0, 0, 0]\nclass = 2", fillcolor="#9de539"] ;
60 -> 62 ;
63 [label="gini = 0.0\nsamples = 6\nvalue = [0, 6, 0, 0, 0, 0]\nclass = 2", fillcolor="#9de539"] ;
59 -> 63 ;
64 [label="tBodyAcc-mean()-X <= 0.252\ngini = 0.635\nsamples = 59\nvalue = [19, 29, 8, 2, 1, 0]\nclass = 2", fillcolor="#e6f8ce"] ;
54 -> 64 ;
65 [label="tBodyAcc-mean()-Z <= -0.12\ngini = 0.628\nsamples = 56\nvalue = [16, 29, 8, 2, 1, 0]\nclass = 2", fillcolor="#dff7bf"] ;
64 -> 65 ;
66 [label="tBodyAcc-mean()-Z <= -0.227\ngini = 0.566\nsamples = 36\nvalue = [8, 22, 3, 2, 1, 0]\nclass = 2", fillcolor="#cef29c"] ;
65 -> 66 ;
67 [label="tBodyAcc-mean()-Z <= -0.249\ngini = 0.444\nsamples = 3\nvalue = [2, 0, 0, 1, 0, 0]\nclass = 1", fillcolor="#f2c09c"] ;
66 -> 67 ;
68 [label="gini = 0.0\nsamples = 2\nvalue = [2, 0, 0, 0, 0, 0]\nclass = 1", fillcolor="#e58139"] ;
67 -> 68 ;
69 [label="gini = 0.0\nsamples = 1\nvalue = [0, 0, 0, 1, 0, 0]\nclass = 4", fillcolor="#399de5"] ;
67 -> 69 ;
70 [label="tBodyAcc-mean()-Y <= -0.059\ngini = 0.512\nsamples = 33\nvalue = [6, 22, 3, 1, 1, 0]\nclass = 2", fillcolor="#c5f08a"] ;
66 -> 70 ;
71 [label="tBodyAcc-mean()-Y <= -0.07\ngini = 0.338\nsamples = 15\nvalue = [2, 12, 0, 1, 0, 0]\nclass = 2", fillcolor="#b4eb67"] ;
70 -> 71 ;
72 [label="tBodyAcc-mean()-X <= 0.237\ngini = 0.667\nsamples = 3\nvalue = [1, 1, 0, 1, 0, 0]\nclass = 1", fillcolor="#ffffff"] ;
71 -> 72 ;
73 [label="gini = 0.0\nsamples = 1\nvalue = [1, 0, 0, 0, 0, 0]\nclass = 1", fillcolor="#e58139"] ;
72 -> 73 ;
74 [label="tBodyAcc-mean()-X <= 0.25\ngini = 0.5\nsamples = 2\nvalue = [0, 1, 0, 1, 0, 0]\nclass = 2", fillcolor="#ffffff"] ;
72 -> 74 ;
75 [label="gini = 0.0\nsamples = 1\nvalue = [0, 0, 0, 1, 0, 0]\nclass = 4", fillcolor="#399de5"] ;
74 -> 75 ;
76 [label="gini = 0.0\nsamples = 1\nvalue = [0, 1, 0, 0, 0, 0]\nclass = 2", fillcolor="#9de539"] ;
74 -> 76 ;
77 [label="tBodyAcc-mean()-X <= 0.205\ngini = 0.153\nsamples = 12\nvalue = [1, 11, 0, 0, 0, 0]\nclass = 2", fillcolor="#a6e74b"] ;
71 -> 77 ;
78 [label="tBodyAcc-mean()-X <= 0.196\ngini = 0.5\nsamples = 2\nvalue = [1, 1, 0, 0, 0, 0]\nclass = 1", fillcolor="#ffffff"] ;
77 -> 78 ;
79 [label="gini = 0.0\nsamples = 1\nvalue = [0, 1, 0, 0, 0, 0]\nclass = 2", fillcolor="#9de539"] ;
78 -> 79 ;
80 [label="gini = 0.0\nsamples = 1\nvalue = [1, 0, 0, 0, 0, 0]\nclass = 1", fillcolor="#e58139"] ;
78 -> 80 ;
81 [label="gini = 0.0\nsamples = 10\nvalue = [0, 10, 0, 0, 0, 0]\nclass = 2", fillcolor="#9de539"] ;
77 -> 81 ;
82 [label="tBodyAcc-mean()-Y <= -0.058\ngini = 0.611\nsamples = 18\nvalue = [4, 10, 3, 0, 1, 0]\nclass = 2", fillcolor="#d5f4aa"] ;
70 -> 82 ;
83 [label="gini = 0.0\nsamples = 2\nvalue = [0, 0, 2, 0, 0, 0]\nclass = 3", fillcolor="#39e581"] ;
82 -> 83 ;
84 [label="tBodyAcc-mean()-X <= 0.243\ngini = 0.539\nsamples = 16\nvalue = [4, 10, 1, 0, 1, 0]\nclass = 2", fillcolor="#cef29c"] ;
82 -> 84 ;
85 [label="tBodyAcc-mean()-X <= 0.238\ngini = 0.625\nsamples = 12\nvalue = [4, 6, 1, 0, 1, 0]\nclass = 2", fillcolor="#e6f8ce"] ;
84 -> 85 ;
86 [label="tBodyAcc-mean()-Y <= -0.055\ngini = 0.58\nsamples = 10\nvalue = [2, 6, 1, 0, 1, 0]\nclass = 2", fillcolor="#cef29c"] ;
85 -> 86 ;
87 [label="tBodyAcc-mean()-X <= 0.213\ngini = 0.5\nsamples = 2\nvalue = [0, 0, 1, 0, 1, 0]\nclass = 3", fillcolor="#ffffff"] ;
86 -> 87 ;
88 [label="gini = 0.0\nsamples = 1\nvalue = [0, 0, 1, 0, 0, 0]\nclass = 3", fillcolor="#39e581"] ;
87 -> 88 ;
89 [label="gini = 0.0\nsamples = 1\nvalue = [0, 0, 0, 0, 1, 0]\nclass = 5", fillcolor="#8139e5"] ;
87 -> 89 ;
90 [label="tBodyAcc-mean()-X <= 0.196\ngini = 0.375\nsamples = 8\nvalue = [2, 6, 0, 0, 0, 0]\nclass = 2", fillcolor="#beee7b"] ;
86 -> 90 ;
91 [label="gini = 0.0\nsamples = 1\nvalue = [1, 0, 0, 0, 0, 0]\nclass = 1", fillcolor="#e58139"] ;
90 -> 91 ;
92 [label="tBodyAcc-mean()-X <= 0.22\ngini = 0.245\nsamples = 7\nvalue = [1, 6, 0, 0, 0, 0]\nclass = 2", fillcolor="#ade95a"] ;
90 -> 92 ;
93 [label="gini = 0.0\nsamples = 4\nvalue = [0, 4, 0, 0, 0, 0]\nclass = 2", fillcolor="#9de539"] ;
92 -> 93 ;
94 [label="tBodyAcc-mean()-X <= 0.226\ngini = 0.444\nsamples = 3\nvalue = [1, 2, 0, 0, 0, 0]\nclass = 2", fillcolor="#cef29c"] ;
92 -> 94 ;
95 [label="gini = 0.0\nsamples = 1\nvalue = [1, 0, 0, 0, 0, 0]\nclass = 1", fillcolor="#e58139"] ;
94 -> 95 ;
96 [label="gini = 0.0\nsamples = 2\nvalue = [0, 2, 0, 0, 0, 0]\nclass = 2", fillcolor="#9de539"] ;
94 -> 96 ;
97 [label="gini = 0.0\nsamples = 2\nvalue = [2, 0, 0, 0, 0, 0]\nclass = 1", fillcolor="#e58139"] ;
85 -> 97 ;
98 [label="gini = 0.0\nsamples = 4\nvalue = [0, 4, 0, 0, 0, 0]\nclass = 2", fillcolor="#9de539"] ;
84 -> 98 ;
99 [label="tBodyAcc-mean()-Y <= -0.063\ngini = 0.655\nsamples = 20\nvalue = [8, 7, 5, 0, 0, 0]\nclass = 1", fillcolor="#fdf5f0"] ;
65 -> 99 ;
100 [label="gini = 0.0\nsamples = 5\nvalue = [5, 0, 0, 0, 0, 0]\nclass = 1", fillcolor="#e58139"] ;
99 -> 100 ;
101 [label="tBodyAcc-mean()-Y <= -0.059\ngini = 0.631\nsamples = 15\nvalue = [3, 7, 5, 0, 0, 0]\nclass = 2", fillcolor="#ebfad7"] ;
99 -> 101 ;
102 [label="gini = 0.0\nsamples = 3\nvalue = [0, 0, 3, 0, 0, 0]\nclass = 3", fillcolor="#39e581"] ;
101 -> 102 ;
103 [label="tBodyAcc-mean()-Z <= -0.101\ngini = 0.569\nsamples = 12\nvalue = [3, 7, 2, 0, 0, 0]\nclass = 2", fillcolor="#d3f3a7"] ;
101 -> 103 ;
104 [label="gini = 0.0\nsamples = 4\nvalue = [0, 4, 0, 0, 0, 0]\nclass = 2", fillcolor="#9de539"] ;
103 -> 104 ;
105 [label="tBodyAcc-mean()-Z <= -0.096\ngini = 0.656\nsamples = 8\nvalue = [3, 3, 2, 0, 0, 0]\nclass = 1", fillcolor="#ffffff"] ;
103 -> 105 ;
106 [label="gini = 0.0\nsamples = 3\nvalue = [3, 0, 0, 0, 0, 0]\nclass = 1", fillcolor="#e58139"] ;
105 -> 106 ;
107 [label="tBodyAcc-mean()-X <= 0.211\ngini = 0.48\nsamples = 5\nvalue = [0, 3, 2, 0, 0, 0]\nclass = 2", fillcolor="#def6bd"] ;
105 -> 107 ;
108 [label="gini = 0.0\nsamples = 2\nvalue = [0, 2, 0, 0, 0, 0]\nclass = 2", fillcolor="#9de539"] ;
107 -> 108 ;
109 [label="tBodyAcc-mean()-Y <= -0.053\ngini = 0.444\nsamples = 3\nvalue = [0, 1, 2, 0, 0, 0]\nclass = 3", fillcolor="#9cf2c0"] ;
107 -> 109 ;
110 [label="gini = 0.0\nsamples = 2\nvalue = [0, 0, 2, 0, 0, 0]\nclass = 3", fillcolor="#39e581"] ;
109 -> 110 ;
111 [label="gini = 0.0\nsamples = 1\nvalue = [0, 1, 0, 0, 0, 0]\nclass = 2", fillcolor="#9de539"] ;
109 -> 111 ;
112 [label="gini = 0.0\nsamples = 3\nvalue = [3, 0, 0, 0, 0, 0]\nclass = 1", fillcolor="#e58139"] ;
64 -> 112 ;
113 [label="tBodyAcc-mean()-X <= 0.123\ngini = 0.74\nsamples = 32\nvalue = [4, 10, 7, 1, 0, 10]\nclass = 2", fillcolor="#ffffff"] ;
53 -> 113 ;
114 [label="gini = 0.0\nsamples = 5\nvalue = [0, 0, 0, 0, 0, 5]\nclass = 6", fillcolor="#e5399d"] ;
113 -> 114 ;
115 [label="tBodyAcc-mean()-Z <= -0.066\ngini = 0.738\nsamples = 27\nvalue = [4, 10, 7, 1, 0, 5]\nclass = 2", fillcolor="#f0fbe1"] ;
113 -> 115 ;
116 [label="tBodyAcc-mean()-Z <= -0.067\ngini = 0.694\nsamples = 7\nvalue = [3, 1, 0, 1, 0, 2]\nclass = 1", fillcolor="#fae6d7"] ;
115 -> 116 ;
117 [label="tBodyAcc-mean()-Y <= -0.059\ngini = 0.72\nsamples = 5\nvalue = [1, 1, 0, 1, 0, 2]\nclass = 6", fillcolor="#f8cee6"] ;
116 -> 117 ;
118 [label="tBodyAcc-mean()-Y <= -0.063\ngini = 0.444\nsamples = 3\nvalue = [0, 1, 0, 0, 0, 2]\nclass = 6", fillcolor="#f29cce"] ;
117 -> 118 ;
119 [label="gini = 0.0\nsamples = 1\nvalue = [0, 1, 0, 0, 0, 0]\nclass = 2", fillcolor="#9de539"] ;
118 -> 119 ;
120 [label="gini = 0.0\nsamples = 2\nvalue = [0, 0, 0, 0, 0, 2]\nclass = 6", fillcolor="#e5399d"] ;
118 -> 120 ;
121 [label="tBodyAcc-mean()-X <= 0.234\ngini = 0.5\nsamples = 2\nvalue = [1, 0, 0, 1, 0, 0]\nclass = 1", fillcolor="#ffffff"] ;
117 -> 121 ;
122 [label="gini = 0.0\nsamples = 1\nvalue = [1, 0, 0, 0, 0, 0]\nclass = 1", fillcolor="#e58139"] ;
121 -> 122 ;
123 [label="gini = 0.0\nsamples = 1\nvalue = [0, 0, 0, 1, 0, 0]\nclass = 4", fillcolor="#399de5"] ;
121 -> 123 ;
124 [label="gini = 0.0\nsamples = 2\nvalue = [2, 0, 0, 0, 0, 0]\nclass = 1", fillcolor="#e58139"] ;
116 -> 124 ;
125 [label="tBodyAcc-mean()-Y <= -0.059\ngini = 0.65\nsamples = 20\nvalue = [1, 9, 7, 0, 0, 3]\nclass = 2", fillcolor="#f0fbe1"] ;
115 -> 125 ;
126 [label="tBodyAcc-mean()-X <= 0.185\ngini = 0.541\nsamples = 14\nvalue = [0, 8, 5, 0, 0, 1]\nclass = 2", fillcolor="#def6bd"] ;
125 -> 126 ;
127 [label="gini = 0.0\nsamples = 3\nvalue = [0, 3, 0, 0, 0, 0]\nclass = 2", fillcolor="#9de539"] ;
126 -> 127 ;
128 [label="tBodyAcc-mean()-Z <= -0.027\ngini = 0.579\nsamples = 11\nvalue = [0, 5, 5, 0, 0, 1]\nclass = 2", fillcolor="#ffffff"] ;
126 -> 128 ;
129 [label="tBodyAcc-mean()-Z <= -0.065\ngini = 0.469\nsamples = 8\nvalue = [0, 5, 3, 0, 0, 0]\nclass = 2", fillcolor="#d8f5b0"] ;
128 -> 129 ;
130 [label="gini = 0.0\nsamples = 1\nvalue = [0, 0, 1, 0, 0, 0]\nclass = 3", fillcolor="#39e581"] ;
129 -> 130 ;
131 [label="tBodyAcc-mean()-Z <= -0.058\ngini = 0.408\nsamples = 7\nvalue = [0, 5, 2, 0, 0, 0]\nclass = 2", fillcolor="#c4ef88"] ;
129 -> 131 ;
132 [label="gini = 0.0\nsamples = 2\nvalue = [0, 2, 0, 0, 0, 0]\nclass = 2", fillcolor="#9de539"] ;
131 -> 132 ;
133 [label="tBodyAcc-mean()-Y <= -0.065\ngini = 0.48\nsamples = 5\nvalue = [0, 3, 2, 0, 0, 0]\nclass = 2", fillcolor="#def6bd"] ;
131 -> 133 ;
134 [label="gini = 0.0\nsamples = 2\nvalue = [0, 2, 0, 0, 0, 0]\nclass = 2", fillcolor="#9de539"] ;
133 -> 134 ;
135 [label="tBodyAcc-mean()-Y <= -0.061\ngini = 0.444\nsamples = 3\nvalue = [0, 1, 2, 0, 0, 0]\nclass = 3", fillcolor="#9cf2c0"] ;
133 -> 135 ;
136 [label="gini = 0.0\nsamples = 2\nvalue = [0, 0, 2, 0, 0, 0]\nclass = 3", fillcolor="#39e581"] ;
135 -> 136 ;
137 [label="gini = 0.0\nsamples = 1\nvalue = [0, 1, 0, 0, 0, 0]\nclass = 2", fillcolor="#9de539"] ;
135 -> 137 ;
138 [label="tBodyAcc-mean()-X <= 0.199\ngini = 0.444\nsamples = 3\nvalue = [0, 0, 2, 0, 0, 1]\nclass = 3", fillcolor="#9cf2c0"] ;
128 -> 138 ;
139 [label="gini = 0.0\nsamples = 2\nvalue = [0, 0, 2, 0, 0, 0]\nclass = 3", fillcolor="#39e581"] ;
138 -> 139 ;
140 [label="gini = 0.0\nsamples = 1\nvalue = [0, 0, 0, 0, 0, 1]\nclass = 6", fillcolor="#e5399d"] ;
138 -> 140 ;
141 [label="tBodyAcc-mean()-X <= 0.223\ngini = 0.722\nsamples = 6\nvalue = [1, 1, 2, 0, 0, 2]\nclass = 3", fillcolor="#ffffff"] ;
125 -> 141 ;
142 [label="tBodyAcc-mean()-Y <= -0.052\ngini = 0.64\nsamples = 5\nvalue = [0, 1, 2, 0, 0, 2]\nclass = 3", fillcolor="#ffffff"] ;
141 -> 142 ;
143 [label="tBodyAcc-mean()-Y <= -0.058\ngini = 0.5\nsamples = 4\nvalue = [0, 0, 2, 0, 0, 2]\nclass = 3", fillcolor="#ffffff"] ;
142 -> 143 ;
144 [label="gini = 0.0\nsamples = 1\nvalue = [0, 0, 0, 0, 0, 1]\nclass = 6", fillcolor="#e5399d"] ;
143 -> 144 ;
145 [label="tBodyAcc-mean()-Z <= -0.023\ngini = 0.444\nsamples = 3\nvalue = [0, 0, 2, 0, 0, 1]\nclass = 3", fillcolor="#9cf2c0"] ;
143 -> 145 ;
146 [label="gini = 0.0\nsamples = 2\nvalue = [0, 0, 2, 0, 0, 0]\nclass = 3", fillcolor="#39e581"] ;
145 -> 146 ;
147 [label="gini = 0.0\nsamples = 1\nvalue = [0, 0, 0, 0, 0, 1]\nclass = 6", fillcolor="#e5399d"] ;
145 -> 147 ;
148 [label="gini = 0.0\nsamples = 1\nvalue = [0, 1, 0, 0, 0, 0]\nclass = 2", fillcolor="#9de539"] ;
142 -> 148 ;
149 [label="gini = 0.0\nsamples = 1\nvalue = [1, 0, 0, 0, 0, 0]\nclass = 1", fillcolor="#e58139"] ;
141 -> 149 ;
150 [label="gini = 0.0\nsamples = 18\nvalue = [0, 0, 0, 0, 0, 18]\nclass = 6", fillcolor="#e5399d"] ;
2 -> 150 ;
151 [label="tBodyAcc-mean()-X <= 0.18\ngini = 0.767\nsamples = 1416\nvalue = [426, 349, 356, 86, 31, 168]\nclass = 1", fillcolor="#fdf7f2"] ;
1 -> 151 ;
152 [label="tBodyAcc-mean()-Y <= 0.068\ngini = 0.694\nsamples = 282\nvalue = [22, 79, 127, 25, 0, 29]\nclass = 3", fillcolor="#d0f9e1"] ;
151 -> 152 ;
153 [label="tBodyAcc-mean()-Z <= -0.008\ngini = 0.638\nsamples = 253\nvalue = [22, 78, 127, 5, 0, 21]\nclass = 3", fillcolor="#c8f8dc"] ;
152 -> 153 ;
154 [label="tBodyAcc-mean()-Y <= 0.005\ngini = 0.617\nsamples = 242\nvalue = [21, 78, 125, 1, 0, 17]\nclass = 3", fillcolor="#c6f8db"] ;
153 -> 154 ;
155 [label="tBodyAcc-mean()-Z <= -0.124\ngini = 0.64\nsamples = 188\nvalue = [19, 69, 86, 0, 0, 14]\nclass = 3", fillcolor="#e3fbed"] ;
154 -> 155 ;
156 [label="tBodyAcc-mean()-Z <= -0.228\ngini = 0.51\nsamples = 67\nvalue = [1, 26, 39, 0, 0, 1]\nclass = 3", fillcolor="#c0f7d7"] ;
155 -> 156 ;
157 [label="gini = 0.0\nsamples = 4\nvalue = [0, 4, 0, 0, 0, 0]\nclass = 2", fillcolor="#9de539"] ;
156 -> 157 ;
158 [label="tBodyAcc-mean()-Y <= -0.02\ngini = 0.494\nsamples = 63\nvalue = [1, 22, 39, 0, 0, 1]\nclass = 3", fillcolor="#adf4cb"] ;
156 -> 158 ;
159 [label="tBodyAcc-mean()-X <= 0.172\ngini = 0.521\nsamples = 40\nvalue = [1, 18, 21, 0, 0, 0]\nclass = 3", fillcolor="#e4fbee"] ;
158 -> 159 ;
160 [label="tBodyAcc-mean()-Z <= -0.129\ngini = 0.526\nsamples = 36\nvalue = [1, 18, 17, 0, 0, 0]\nclass = 2", fillcolor="#fafef5"] ;
159 -> 160 ;
161 [label="tBodyAcc-mean()-Y <= -0.036\ngini = 0.522\nsamples = 33\nvalue = [1, 18, 14, 0, 0, 0]\nclass = 2", fillcolor="#eafad5"] ;
160 -> 161 ;
162 [label="tBodyAcc-mean()-Y <= -0.051\ngini = 0.346\nsamples = 9\nvalue = [0, 7, 2, 0, 0, 0]\nclass = 2", fillcolor="#b9ec72"] ;
161 -> 162 ;
163 [label="gini = 0.0\nsamples = 1\nvalue = [0, 0, 1, 0, 0, 0]\nclass = 3", fillcolor="#39e581"] ;
162 -> 163 ;
164 [label="tBodyAcc-mean()-X <= 0.146\ngini = 0.219\nsamples = 8\nvalue = [0, 7, 1, 0, 0, 0]\nclass = 2", fillcolor="#abe955"] ;
162 -> 164 ;
165 [label="gini = 0.0\nsamples = 6\nvalue = [0, 6, 0, 0, 0, 0]\nclass = 2", fillcolor="#9de539"] ;
164 -> 165 ;
166 [label="tBodyAcc-mean()-Y <= -0.04\ngini = 0.5\nsamples = 2\nvalue = [0, 1, 1, 0, 0, 0]\nclass = 2", fillcolor="#ffffff"] ;
164 -> 166 ;
167 [label="gini = 0.0\nsamples = 1\nvalue = [0, 1, 0, 0, 0, 0]\nclass = 2", fillcolor="#9de539"] ;
166 -> 167 ;
168 [label="gini = 0.0\nsamples = 1\nvalue = [0, 0, 1, 0, 0, 0]\nclass = 3", fillcolor="#39e581"] ;
166 -> 168 ;
169 [label="tBodyAcc-mean()-Y <= -0.033\ngini = 0.538\nsamples = 24\nvalue = [1, 11, 12, 0, 0, 0]\nclass = 3", fillcolor="#f0fdf5"] ;
161 -> 169 ;
170 [label="tBodyAcc-mean()-Y <= -0.035\ngini = 0.375\nsamples = 4\nvalue = [1, 0, 3, 0, 0, 0]\nclass = 3", fillcolor="#7beeab"] ;
169 -> 170 ;
171 [label="gini = 0.0\nsamples = 1\nvalue = [1, 0, 0, 0, 0, 0]\nclass = 1", fillcolor="#e58139"] ;
170 -> 171 ;
172 [label="gini = 0.0\nsamples = 3\nvalue = [0, 0, 3, 0, 0, 0]\nclass = 3", fillcolor="#39e581"] ;
170 -> 172 ;
173 [label="tBodyAcc-mean()-X <= 0.154\ngini = 0.495\nsamples = 20\nvalue = [0, 11, 9, 0, 0, 0]\nclass = 2", fillcolor="#edfadb"] ;
169 -> 173 ;
174 [label="tBodyAcc-mean()-X <= 0.141\ngini = 0.48\nsamples = 15\nvalue = [0, 6, 9, 0, 0, 0]\nclass = 3", fillcolor="#bdf6d5"] ;
173 -> 174 ;
175 [label="tBodyAcc-mean()-X <= 0.113\ngini = 0.496\nsamples = 11\nvalue = [0, 6, 5, 0, 0, 0]\nclass = 2", fillcolor="#effbde"] ;
174 -> 175 ;
176 [label="tBodyAcc-mean()-Z <= -0.133\ngini = 0.444\nsamples = 6\nvalue = [0, 2, 4, 0, 0, 0]\nclass = 3", fillcolor="#9cf2c0"] ;
175 -> 176 ;
177 [label="tBodyAcc-mean()-Y <= -0.027\ngini = 0.32\nsamples = 5\nvalue = [0, 1, 4, 0, 0, 0]\nclass = 3", fillcolor="#6aeca0"] ;
176 -> 177 ;
178 [label="gini = 0.0\nsamples = 3\nvalue = [0, 0, 3, 0, 0, 0]\nclass = 3", fillcolor="#39e581"] ;
177 -> 178 ;
179 [label="tBodyAcc-mean()-Z <= -0.156\ngini = 0.5\nsamples = 2\nvalue = [0, 1, 1, 0, 0, 0]\nclass = 2", fillcolor="#ffffff"] ;
177 -> 179 ;
180 [label="gini = 0.0\nsamples = 1\nvalue = [0, 1, 0, 0, 0, 0]\nclass = 2", fillcolor="#9de539"] ;
179 -> 180 ;
181 [label="gini = 0.0\nsamples = 1\nvalue = [0, 0, 1, 0, 0, 0]\nclass = 3", fillcolor="#39e581"] ;
179 -> 181 ;
182 [label="gini = 0.0\nsamples = 1\nvalue = [0, 1, 0, 0, 0, 0]\nclass = 2", fillcolor="#9de539"] ;
176 -> 182 ;
183 [label="tBodyAcc-mean()-X <= 0.137\ngini = 0.32\nsamples = 5\nvalue = [0, 4, 1, 0, 0, 0]\nclass = 2", fillcolor="#b6ec6a"] ;
175 -> 183 ;
184 [label="gini = 0.0\nsamples = 3\nvalue = [0, 3, 0, 0, 0, 0]\nclass = 2", fillcolor="#9de539"] ;
183 -> 184 ;
185 [label="tBodyAcc-mean()-Z <= -0.181\ngini = 0.5\nsamples = 2\nvalue = [0, 1, 1, 0, 0, 0]\nclass = 2", fillcolor="#ffffff"] ;
183 -> 185 ;
186 [label="gini = 0.0\nsamples = 1\nvalue = [0, 1, 0, 0, 0, 0]\nclass = 2", fillcolor="#9de539"] ;
185 -> 186 ;
187 [label="gini = 0.0\nsamples = 1\nvalue = [0, 0, 1, 0, 0, 0]\nclass = 3", fillcolor="#39e581"] ;
185 -> 187 ;
188 [label="gini = 0.0\nsamples = 4\nvalue = [0, 0, 4, 0, 0, 0]\nclass = 3", fillcolor="#39e581"] ;
174 -> 188 ;
189 [label="gini = 0.0\nsamples = 5\nvalue = [0, 5, 0, 0, 0, 0]\nclass = 2", fillcolor="#9de539"] ;
173 -> 189 ;
190 [label="gini = 0.0\nsamples = 3\nvalue = [0, 0, 3, 0, 0, 0]\nclass = 3", fillcolor="#39e581"] ;
160 -> 190 ;
191 [label="gini = 0.0\nsamples = 4\nvalue = [0, 0, 4, 0, 0, 0]\nclass = 3", fillcolor="#39e581"] ;
159 -> 191 ;
192 [label="tBodyAcc-mean()-Z <= -0.178\ngini = 0.355\nsamples = 23\nvalue = [0, 4, 18, 0, 0, 1]\nclass = 3", fillcolor="#6deca2"] ;
158 -> 192 ;
193 [label="tBodyAcc-mean()-Y <= -0.01\ngini = 0.5\nsamples = 4\nvalue = [0, 2, 2, 0, 0, 0]\nclass = 2", fillcolor="#ffffff"] ;
192 -> 193 ;
194 [label="gini = 0.0\nsamples = 2\nvalue = [0, 0, 2, 0, 0, 0]\nclass = 3", fillcolor="#39e581"] ;
193 -> 194 ;
195 [label="gini = 0.0\nsamples = 2\nvalue = [0, 2, 0, 0, 0, 0]\nclass = 2", fillcolor="#9de539"] ;
193 -> 195 ;
196 [label="tBodyAcc-mean()-Z <= -0.141\ngini = 0.277\nsamples = 19\nvalue = [0, 2, 16, 0, 0, 1]\nclass = 3", fillcolor="#5cea97"] ;
192 -> 196 ;
197 [label="gini = 0.0\nsamples = 11\nvalue = [0, 0, 11, 0, 0, 0]\nclass = 3", fillcolor="#39e581"] ;
196 -> 197 ;
198 [label="tBodyAcc-mean()-X <= 0.159\ngini = 0.531\nsamples = 8\nvalue = [0, 2, 5, 0, 0, 1]\nclass = 3", fillcolor="#9cf2c0"] ;
196 -> 198 ;
199 [label="tBodyAcc-mean()-X <= 0.133\ngini = 0.625\nsamples = 4\nvalue = [0, 2, 1, 0, 0, 1]\nclass = 2", fillcolor="#def6bd"] ;
198 -> 199 ;
200 [label="tBodyAcc-mean()-Y <= -0.005\ngini = 0.5\nsamples = 2\nvalue = [0, 0, 1, 0, 0, 1]\nclass = 3", fillcolor="#ffffff"] ;
199 -> 200 ;
201 [label="gini = 0.0\nsamples = 1\nvalue = [0, 0, 0, 0, 0, 1]\nclass = 6", fillcolor="#e5399d"] ;
200 -> 201 ;
202 [label="gini = 0.0\nsamples = 1\nvalue = [0, 0, 1, 0, 0, 0]\nclass = 3", fillcolor="#39e581"] ;
200 -> 202 ;
203 [label="gini = 0.0\nsamples = 2\nvalue = [0, 2, 0, 0, 0, 0]\nclass = 2", fillcolor="#9de539"] ;
199 -> 203 ;
204 [label="gini = 0.0\nsamples = 4\nvalue = [0, 0, 4, 0, 0, 0]\nclass = 3", fillcolor="#39e581"] ;
198 -> 204 ;
205 [label="tBodyAcc-mean()-X <= 0.139\ngini = 0.689\nsamples = 121\nvalue = [18, 43, 47, 0, 0, 13]\nclass = 3", fillcolor="#f5fef9"] ;
155 -> 205 ;
206 [label="tBodyAcc-mean()-Z <= -0.096\ngini = 0.598\nsamples = 42\nvalue = [2, 9, 24, 0, 0, 7]\nclass = 3", fillcolor="#a5f3c6"] ;
205 -> 206 ;
207 [label="tBodyAcc-mean()-X <= 0.135\ngini = 0.304\nsamples = 17\nvalue = [0, 1, 14, 0, 0, 2]\nclass = 3", fillcolor="#61ea9a"] ;
206 -> 207 ;
208 [label="tBodyAcc-mean()-X <= 0.095\ngini = 0.227\nsamples = 16\nvalue = [0, 1, 14, 0, 0, 1]\nclass = 3", fillcolor="#53e892"] ;
207 -> 208 ;
209 [label="tBodyAcc-mean()-X <= 0.076\ngini = 0.5\nsamples = 6\nvalue = [0, 1, 4, 0, 0, 1]\nclass = 3", fillcolor="#88efb3"] ;
208 -> 209 ;
210 [label="gini = 0.0\nsamples = 4\nvalue = [0, 0, 4, 0, 0, 0]\nclass = 3", fillcolor="#39e581"] ;
209 -> 210 ;
211 [label="tBodyAcc-mean()-Y <= -0.025\ngini = 0.5\nsamples = 2\nvalue = [0, 1, 0, 0, 0, 1]\nclass = 2", fillcolor="#ffffff"] ;
209 -> 211 ;
212 [label="gini = 0.0\nsamples = 1\nvalue = [0, 1, 0, 0, 0, 0]\nclass = 2", fillcolor="#9de539"] ;
211 -> 212 ;
213 [label="gini = 0.0\nsamples = 1\nvalue = [0, 0, 0, 0, 0, 1]\nclass = 6", fillcolor="#e5399d"] ;
211 -> 213 ;
214 [label="gini = 0.0\nsamples = 10\nvalue = [0, 0, 10, 0, 0, 0]\nclass = 3", fillcolor="#39e581"] ;
208 -> 214 ;
215 [label="gini = 0.0\nsamples = 1\nvalue = [0, 0, 0, 0, 0, 1]\nclass = 6", fillcolor="#e5399d"] ;
207 -> 215 ;
216 [label="tBodyAcc-mean()-X <= 0.085\ngini = 0.691\nsamples = 25\nvalue = [2, 8, 10, 0, 0, 5]\nclass = 3", fillcolor="#e8fcf0"] ;
206 -> 216 ;
217 [label="gini = 0.0\nsamples = 4\nvalue = [0, 0, 0, 0, 0, 4]\nclass = 6", fillcolor="#e5399d"] ;
216 -> 217 ;
218 [label="tBodyAcc-mean()-Z <= -0.057\ngini = 0.617\nsamples = 21\nvalue = [2, 8, 10, 0, 0, 1]\nclass = 3", fillcolor="#e1fbec"] ;
216 -> 218 ;
219 [label="tBodyAcc-mean()-X <= 0.135\ngini = 0.587\nsamples = 15\nvalue = [2, 8, 5, 0, 0, 0]\nclass = 2", fillcolor="#e2f7c4"] ;
218 -> 219 ;
220 [label="tBodyAcc-mean()-Y <= -0.008\ngini = 0.397\nsamples = 11\nvalue = [0, 8, 3, 0, 0, 0]\nclass = 2", fillcolor="#c2ef83"] ;
219 -> 220 ;
221 [label="tBodyAcc-mean()-Y <= -0.031\ngini = 0.198\nsamples = 9\nvalue = [0, 8, 1, 0, 0, 0]\nclass = 2", fillcolor="#a9e852"] ;
220 -> 221 ;
222 [label="tBodyAcc-mean()-Z <= -0.069\ngini = 0.5\nsamples = 2\nvalue = [0, 1, 1, 0, 0, 0]\nclass = 2", fillcolor="#ffffff"] ;
221 -> 222 ;
223 [label="gini = 0.0\nsamples = 1\nvalue = [0, 1, 0, 0, 0, 0]\nclass = 2", fillcolor="#9de539"] ;
222 -> 223 ;
224 [label="gini = 0.0\nsamples = 1\nvalue = [0, 0, 1, 0, 0, 0]\nclass = 3", fillcolor="#39e581"] ;
222 -> 224 ;
225 [label="gini = 0.0\nsamples = 7\nvalue = [0, 7, 0, 0, 0, 0]\nclass = 2", fillcolor="#9de539"] ;
221 -> 225 ;
226 [label="gini = 0.0\nsamples = 2\nvalue = [0, 0, 2, 0, 0, 0]\nclass = 3", fillcolor="#39e581"] ;
220 -> 226 ;
227 [label="tBodyAcc-mean()-Y <= -0.013\ngini = 0.5\nsamples = 4\nvalue = [2, 0, 2, 0, 0, 0]\nclass = 1", fillcolor="#ffffff"] ;
219 -> 227 ;
228 [label="gini = 0.0\nsamples = 2\nvalue = [0, 0, 2, 0, 0, 0]\nclass = 3", fillcolor="#39e581"] ;
227 -> 228 ;
229 [label="gini = 0.0\nsamples = 2\nvalue = [2, 0, 0, 0, 0, 0]\nclass = 1", fillcolor="#e58139"] ;
227 -> 229 ;
230 [label="tBodyAcc-mean()-Z <= -0.033\ngini = 0.278\nsamples = 6\nvalue = [0, 0, 5, 0, 0, 1]\nclass = 3", fillcolor="#61ea9a"] ;
218 -> 230 ;
231 [label="tBodyAcc-mean()-Z <= -0.045\ngini = 0.5\nsamples = 2\nvalue = [0, 0, 1, 0, 0, 1]\nclass = 3", fillcolor="#ffffff"] ;
230 -> 231 ;
232 [label="gini = 0.0\nsamples = 1\nvalue = [0, 0, 1, 0, 0, 0]\nclass = 3", fillcolor="#39e581"] ;
231 -> 232 ;
233 [label="gini = 0.0\nsamples = 1\nvalue = [0, 0, 0, 0, 0, 1]\nclass = 6", fillcolor="#e5399d"] ;
231 -> 233 ;
234 [label="gini = 0.0\nsamples = 4\nvalue = [0, 0, 4, 0, 0, 0]\nclass = 3", fillcolor="#39e581"] ;
230 -> 234 ;
235 [label="tBodyAcc-mean()-Y <= -0.043\ngini = 0.683\nsamples = 79\nvalue = [16, 34, 23, 0, 0, 6]\nclass = 2", fillcolor="#ecfad8"] ;
205 -> 235 ;
236 [label="tBodyAcc-mean()-Y <= -0.049\ngini = 0.245\nsamples = 7\nvalue = [1, 6, 0, 0, 0, 0]\nclass = 2", fillcolor="#ade95a"] ;
235 -> 236 ;
237 [label="tBodyAcc-mean()-X <= 0.163\ngini = 0.5\nsamples = 2\nvalue = [1, 1, 0, 0, 0, 0]\nclass = 1", fillcolor="#ffffff"] ;
236 -> 237 ;
238 [label="gini = 0.0\nsamples = 1\nvalue = [1, 0, 0, 0, 0, 0]\nclass = 1", fillcolor="#e58139"] ;
237 -> 238 ;
239 [label="gini = 0.0\nsamples = 1\nvalue = [0, 1, 0, 0, 0, 0]\nclass = 2", fillcolor="#9de539"] ;
237 -> 239 ;
240 [label="gini = 0.0\nsamples = 5\nvalue = [0, 5, 0, 0, 0, 0]\nclass = 2", fillcolor="#9de539"] ;
236 -> 240 ;
241 [label="tBodyAcc-mean()-Z <= -0.11\ngini = 0.696\nsamples = 72\nvalue = [15, 28, 23, 0, 0, 6]\nclass = 2", fillcolor="#f5fceb"] ;
235 -> 241 ;
242 [label="tBodyAcc-mean()-Y <= -0.017\ngini = 0.738\nsamples = 15\nvalue = [5, 3, 3, 0, 0, 4]\nclass = 1", fillcolor="#fdf4ed"] ;
241 -> 242 ;
243 [label="tBodyAcc-mean()-Z <= -0.118\ngini = 0.48\nsamples = 5\nvalue = [0, 2, 0, 0, 0, 3]\nclass = 6", fillcolor="#f6bdde"] ;
242 -> 243 ;
244 [label="gini = 0.0\nsamples = 2\nvalue = [0, 2, 0, 0, 0, 0]\nclass = 2", fillcolor="#9de539"] ;
243 -> 244 ;
245 [label="gini = 0.0\nsamples = 3\nvalue = [0, 0, 0, 0, 0, 3]\nclass = 6", fillcolor="#e5399d"] ;
243 -> 245 ;
246 [label="tBodyAcc-mean()-Z <= -0.12\ngini = 0.64\nsamples = 10\nvalue = [5, 1, 3, 0, 0, 1]\nclass = 1", fillcolor="#f8dbc6"] ;
242 -> 246 ;
247 [label="gini = 0.0\nsamples = 3\nvalue = [3, 0, 0, 0, 0, 0]\nclass = 1", fillcolor="#e58139"] ;
246 -> 247 ;
248 [label="tBodyAcc-mean()-Z <= -0.114\ngini = 0.694\nsamples = 7\nvalue = [2, 1, 3, 0, 0, 1]\nclass = 3", fillcolor="#d7fae6"] ;
246 -> 248 ;
249 [label="gini = 0.0\nsamples = 3\nvalue = [0, 0, 3, 0, 0, 0]\nclass = 3", fillcolor="#39e581"] ;
248 -> 249 ;
250 [label="tBodyAcc-mean()-Z <= -0.112\ngini = 0.625\nsamples = 4\nvalue = [2, 1, 0, 0, 0, 1]\nclass = 1", fillcolor="#f6d5bd"] ;
248 -> 250 ;
251 [label="tBodyAcc-mean()-X <= 0.172\ngini = 0.5\nsamples = 2\nvalue = [0, 1, 0, 0, 0, 1]\nclass = 2", fillcolor="#ffffff"] ;
250 -> 251 ;
252 [label="gini = 0.0\nsamples = 1\nvalue = [0, 0, 0, 0, 0, 1]\nclass = 6", fillcolor="#e5399d"] ;
251 -> 252 ;
253 [label="gini = 0.0\nsamples = 1\nvalue = [0, 1, 0, 0, 0, 0]\nclass = 2", fillcolor="#9de539"] ;
251 -> 253 ;
254 [label="gini = 0.0\nsamples = 2\nvalue = [2, 0, 0, 0, 0, 0]\nclass = 1", fillcolor="#e58139"] ;
250 -> 254 ;
255 [label="tBodyAcc-mean()-Y <= 0.002\ngini = 0.653\nsamples = 57\nvalue = [10, 25, 20, 0, 0, 2]\nclass = 2", fillcolor="#f2fbe4"] ;
241 -> 255 ;
256 [label="tBodyAcc-mean()-X <= 0.154\ngini = 0.67\nsamples = 50\nvalue = [10, 19, 19, 0, 0, 2]\nclass = 2", fillcolor="#ffffff"] ;
255 -> 256 ;
257 [label="tBodyAcc-mean()-Z <= -0.077\ngini = 0.278\nsamples = 6\nvalue = [1, 5, 0, 0, 0, 0]\nclass = 2", fillcolor="#b1ea61"] ;
256 -> 257 ;
258 [label="gini = 0.0\nsamples = 5\nvalue = [0, 5, 0, 0, 0, 0]\nclass = 2", fillcolor="#9de539"] ;
257 -> 258 ;
259 [label="gini = 0.0\nsamples = 1\nvalue = [1, 0, 0, 0, 0, 0]\nclass = 1", fillcolor="#e58139"] ;
257 -> 259 ;
260 [label="tBodyAcc-mean()-X <= 0.162\ngini = 0.668\nsamples = 44\nvalue = [9, 14, 19, 0, 0, 2]\nclass = 3", fillcolor="#defbea"] ;
256 -> 260 ;
261 [label="tBodyAcc-mean()-Y <= -0.039\ngini = 0.403\nsamples = 12\nvalue = [2, 1, 9, 0, 0, 0]\nclass = 3", fillcolor="#74eda7"] ;
260 -> 261 ;
262 [label="tBodyAcc-mean()-X <= 0.156\ngini = 0.5\nsamples = 2\nvalue = [0, 1, 1, 0, 0, 0]\nclass = 2", fillcolor="#ffffff"] ;
261 -> 262 ;
263 [label="gini = 0.0\nsamples = 1\nvalue = [0, 0, 1, 0, 0, 0]\nclass = 3", fillcolor="#39e581"] ;
262 -> 263 ;
264 [label="gini = 0.0\nsamples = 1\nvalue = [0, 1, 0, 0, 0, 0]\nclass = 2", fillcolor="#9de539"] ;
262 -> 264 ;
265 [label="tBodyAcc-mean()-X <= 0.157\ngini = 0.32\nsamples = 10\nvalue = [2, 0, 8, 0, 0, 0]\nclass = 3", fillcolor="#6aeca0"] ;
261 -> 265 ;
266 [label="tBodyAcc-mean()-X <= 0.156\ngini = 0.444\nsamples = 6\nvalue = [2, 0, 4, 0, 0, 0]\nclass = 3", fillcolor="#9cf2c0"] ;
265 -> 266 ;
267 [label="tBodyAcc-mean()-Y <= -0.031\ngini = 0.32\nsamples = 5\nvalue = [1, 0, 4, 0, 0, 0]\nclass = 3", fillcolor="#6aeca0"] ;
266 -> 267 ;
268 [label="tBodyAcc-mean()-Y <= -0.035\ngini = 0.5\nsamples = 2\nvalue = [1, 0, 1, 0, 0, 0]\nclass = 1", fillcolor="#ffffff"] ;
267 -> 268 ;
269 [label="gini = 0.0\nsamples = 1\nvalue = [0, 0, 1, 0, 0, 0]\nclass = 3", fillcolor="#39e581"] ;
268 -> 269 ;
270 [label="gini = 0.0\nsamples = 1\nvalue = [1, 0, 0, 0, 0, 0]\nclass = 1", fillcolor="#e58139"] ;
268 -> 270 ;
271 [label="gini = 0.0\nsamples = 3\nvalue = [0, 0, 3, 0, 0, 0]\nclass = 3", fillcolor="#39e581"] ;
267 -> 271 ;
272 [label="gini = 0.0\nsamples = 1\nvalue = [1, 0, 0, 0, 0, 0]\nclass = 1", fillcolor="#e58139"] ;
266 -> 272 ;
273 [label="gini = 0.0\nsamples = 4\nvalue = [0, 0, 4, 0, 0, 0]\nclass = 3", fillcolor="#39e581"] ;
265 -> 273 ;
274 [label="tBodyAcc-mean()-X <= 0.169\ngini = 0.686\nsamples = 32\nvalue = [7, 13, 10, 0, 0, 2]\nclass = 2", fillcolor="#f2fbe4"] ;
260 -> 274 ;
275 [label="tBodyAcc-mean()-Y <= -0.024\ngini = 0.72\nsamples = 10\nvalue = [4, 2, 2, 0, 0, 2]\nclass = 1", fillcolor="#f8e0ce"] ;
274 -> 275 ;
276 [label="tBodyAcc-mean()-X <= 0.166\ngini = 0.722\nsamples = 6\nvalue = [1, 1, 2, 0, 0, 2]\nclass = 3", fillcolor="#ffffff"] ;
275 -> 276 ;
277 [label="tBodyAcc-mean()-Z <= -0.09\ngini = 0.625\nsamples = 4\nvalue = [1, 1, 2, 0, 0, 0]\nclass = 3", fillcolor="#bdf6d5"] ;
276 -> 277 ;
278 [label="gini = 0.0\nsamples = 1\nvalue = [1, 0, 0, 0, 0, 0]\nclass = 1", fillcolor="#e58139"] ;
277 -> 278 ;
279 [label="tBodyAcc-mean()-X <= 0.166\ngini = 0.444\nsamples = 3\nvalue = [0, 1, 2, 0, 0, 0]\nclass = 3", fillcolor="#9cf2c0"] ;
277 -> 279 ;
280 [label="gini = 0.0\nsamples = 2\nvalue = [0, 0, 2, 0, 0, 0]\nclass = 3", fillcolor="#39e581"] ;
279 -> 280 ;
281 [label="gini = 0.0\nsamples = 1\nvalue = [0, 1, 0, 0, 0, 0]\nclass = 2", fillcolor="#9de539"] ;
279 -> 281 ;
282 [label="gini = 0.0\nsamples = 2\nvalue = [0, 0, 0, 0, 0, 2]\nclass = 6", fillcolor="#e5399d"] ;
276 -> 282 ;
283 [label="tBodyAcc-mean()-X <= 0.164\ngini = 0.375\nsamples = 4\nvalue = [3, 1, 0, 0, 0, 0]\nclass = 1", fillcolor="#eeab7b"] ;
275 -> 283 ;
284 [label="gini = 0.0\nsamples = 1\nvalue = [0, 1, 0, 0, 0, 0]\nclass = 2", fillcolor="#9de539"] ;
283 -> 284 ;
285 [label="gini = 0.0\nsamples = 3\nvalue = [3, 0, 0, 0, 0, 0]\nclass = 1", fillcolor="#e58139"] ;
283 -> 285 ;
286 [label="tBodyAcc-mean()-Y <= -0.004\ngini = 0.599\nsamples = 22\nvalue = [3, 11, 8, 0, 0, 0]\nclass = 2", fillcolor="#eaf9d5"] ;
274 -> 286 ;
287 [label="tBodyAcc-mean()-Z <= -0.053\ngini = 0.543\nsamples = 19\nvalue = [1, 10, 8, 0, 0, 0]\nclass = 2", fillcolor="#edfadb"] ;
286 -> 287 ;
288 [label="tBodyAcc-mean()-Y <= -0.006\ngini = 0.555\nsamples = 16\nvalue = [1, 7, 8, 0, 0, 0]\nclass = 3", fillcolor="#e9fcf1"] ;
287 -> 288 ;
289 [label="tBodyAcc-mean()-X <= 0.177\ngini = 0.541\nsamples = 14\nvalue = [1, 5, 8, 0, 0, 0]\nclass = 3", fillcolor="#bdf6d5"] ;
288 -> 289 ;
290 [label="tBodyAcc-mean()-X <= 0.172\ngini = 0.579\nsamples = 11\nvalue = [1, 5, 5, 0, 0, 0]\nclass = 2", fillcolor="#ffffff"] ;
289 -> 290 ;
291 [label="gini = 0.0\nsamples = 2\nvalue = [0, 0, 2, 0, 0, 0]\nclass = 3", fillcolor="#39e581"] ;
290 -> 291 ;
292 [label="tBodyAcc-mean()-Z <= -0.073\ngini = 0.568\nsamples = 9\nvalue = [1, 5, 3, 0, 0, 0]\nclass = 2", fillcolor="#def6bd"] ;
290 -> 292 ;
293 [label="gini = 0.469\nsamples = 8\nvalue = [0, 5, 3, 0, 0, 0]\nclass = 2", fillcolor="#d8f5b0"] ;
292 -> 293 ;
294 [label="gini = 0.0\nsamples = 1\nvalue = [1, 0, 0, 0, 0, 0]\nclass = 1", fillcolor="#e58139"] ;
292 -> 294 ;
295 [label="gini = 0.0\nsamples = 3\nvalue = [0, 0, 3, 0, 0, 0]\nclass = 3", fillcolor="#39e581"] ;
289 -> 295 ;
296 [label="gini = 0.0\nsamples = 2\nvalue = [0, 2, 0, 0, 0, 0]\nclass = 2", fillcolor="#9de539"] ;
288 -> 296 ;
297 [label="gini = 0.0\nsamples = 3\nvalue = [0, 3, 0, 0, 0, 0]\nclass = 2", fillcolor="#9de539"] ;
287 -> 297 ;
298 [label="tBodyAcc-mean()-Z <= -0.103\ngini = 0.444\nsamples = 3\nvalue = [2, 1, 0, 0, 0, 0]\nclass = 1", fillcolor="#f2c09c"] ;
286 -> 298 ;
299 [label="gini = 0.0\nsamples = 2\nvalue = [2, 0, 0, 0, 0, 0]\nclass = 1", fillcolor="#e58139"] ;
298 -> 299 ;
300 [label="gini = 0.0\nsamples = 1\nvalue = [0, 1, 0, 0, 0, 0]\nclass = 2", fillcolor="#9de539"] ;
298 -> 300 ;
301 [label="tBodyAcc-mean()-X <= 0.153\ngini = 0.245\nsamples = 7\nvalue = [0, 6, 1, 0, 0, 0]\nclass = 2", fillcolor="#ade95a"] ;
255 -> 301 ;
302 [label="gini = 0.0\nsamples = 1\nvalue = [0, 0, 1, 0, 0, 0]\nclass = 3", fillcolor="#39e581"] ;
301 -> 302 ;
303 [label="gini = 0.0\nsamples = 6\nvalue = [0, 6, 0, 0, 0, 0]\nclass = 2", fillcolor="#9de539"] ;
301 -> 303 ;
304 [label="tBodyAcc-mean()-Z <= -0.182\ngini = 0.446\nsamples = 54\nvalue = [2, 9, 39, 1, 0, 3]\nclass = 3", fillcolor="#7beeab"] ;
154 -> 304 ;
305 [label="tBodyAcc-mean()-X <= 0.148\ngini = 0.611\nsamples = 6\nvalue = [0, 2, 1, 0, 0, 3]\nclass = 6", fillcolor="#f8cee6"] ;
304 -> 305 ;
306 [label="tBodyAcc-mean()-Z <= -0.212\ngini = 0.48\nsamples = 5\nvalue = [0, 2, 0, 0, 0, 3]\nclass = 6", fillcolor="#f6bdde"] ;
305 -> 306 ;
307 [label="tBodyAcc-mean()-Z <= -0.384\ngini = 0.444\nsamples = 3\nvalue = [0, 2, 0, 0, 0, 1]\nclass = 2", fillcolor="#cef29c"] ;
306 -> 307 ;
308 [label="gini = 0.0\nsamples = 1\nvalue = [0, 0, 0, 0, 0, 1]\nclass = 6", fillcolor="#e5399d"] ;
307 -> 308 ;
309 [label="gini = 0.0\nsamples = 2\nvalue = [0, 2, 0, 0, 0, 0]\nclass = 2", fillcolor="#9de539"] ;
307 -> 309 ;
310 [label="gini = 0.0\nsamples = 2\nvalue = [0, 0, 0, 0, 0, 2]\nclass = 6", fillcolor="#e5399d"] ;
306 -> 310 ;
311 [label="gini = 0.0\nsamples = 1\nvalue = [0, 0, 1, 0, 0, 0]\nclass = 3", fillcolor="#39e581"] ;
305 -> 311 ;
312 [label="tBodyAcc-mean()-X <= 0.12\ngini = 0.35\nsamples = 48\nvalue = [2, 7, 38, 1, 0, 0]\nclass = 3", fillcolor="#69eba0"] ;
304 -> 312 ;
313 [label="gini = 0.0\nsamples = 13\nvalue = [0, 0, 13, 0, 0, 0]\nclass = 3", fillcolor="#39e581"] ;
312 -> 313 ;
314 [label="tBodyAcc-mean()-X <= 0.138\ngini = 0.446\nsamples = 35\nvalue = [2, 7, 25, 1, 0, 0]\nclass = 3", fillcolor="#80eeae"] ;
312 -> 314 ;
315 [label="tBodyAcc-mean()-Z <= -0.107\ngini = 0.375\nsamples = 4\nvalue = [0, 3, 1, 0, 0, 0]\nclass = 2", fillcolor="#beee7b"] ;
314 -> 315 ;
316 [label="gini = 0.0\nsamples = 1\nvalue = [0, 0, 1, 0, 0, 0]\nclass = 3", fillcolor="#39e581"] ;
315 -> 316 ;
317 [label="gini = 0.0\nsamples = 3\nvalue = [0, 3, 0, 0, 0, 0]\nclass = 2", fillcolor="#9de539"] ;
315 -> 317 ;
318 [label="tBodyAcc-mean()-X <= 0.162\ngini = 0.379\nsamples = 31\nvalue = [2, 4, 24, 1, 0, 0]\nclass = 3", fillcolor="#6ceca2"] ;
314 -> 318 ;
319 [label="tBodyAcc-mean()-X <= 0.154\ngini = 0.36\nsamples = 17\nvalue = [0, 4, 13, 0, 0, 0]\nclass = 3", fillcolor="#76eda8"] ;
318 -> 319 ;
320 [label="tBodyAcc-mean()-X <= 0.144\ngini = 0.153\nsamples = 12\nvalue = [0, 1, 11, 0, 0, 0]\nclass = 3", fillcolor="#4be78c"] ;
319 -> 320 ;
321 [label="tBodyAcc-mean()-X <= 0.143\ngini = 0.375\nsamples = 4\nvalue = [0, 1, 3, 0, 0, 0]\nclass = 3", fillcolor="#7beeab"] ;
320 -> 321 ;
322 [label="gini = 0.0\nsamples = 3\nvalue = [0, 0, 3, 0, 0, 0]\nclass = 3", fillcolor="#39e581"] ;
321 -> 322 ;
323 [label="gini = 0.0\nsamples = 1\nvalue = [0, 1, 0, 0, 0, 0]\nclass = 2", fillcolor="#9de539"] ;
321 -> 323 ;
324 [label="gini = 0.0\nsamples = 8\nvalue = [0, 0, 8, 0, 0, 0]\nclass = 3", fillcolor="#39e581"] ;
320 -> 324 ;
325 [label="tBodyAcc-mean()-Y <= 0.025\ngini = 0.48\nsamples = 5\nvalue = [0, 3, 2, 0, 0, 0]\nclass = 2", fillcolor="#def6bd"] ;
319 -> 325 ;
326 [label="tBodyAcc-mean()-X <= 0.154\ngini = 0.444\nsamples = 3\nvalue = [0, 1, 2, 0, 0, 0]\nclass = 3", fillcolor="#9cf2c0"] ;
325 -> 326 ;
327 [label="gini = 0.0\nsamples = 1\nvalue = [0, 1, 0, 0, 0, 0]\nclass = 2", fillcolor="#9de539"] ;
326 -> 327 ;
328 [label="gini = 0.0\nsamples = 2\nvalue = [0, 0, 2, 0, 0, 0]\nclass = 3", fillcolor="#39e581"] ;
326 -> 328 ;
329 [label="gini = 0.0\nsamples = 2\nvalue = [0, 2, 0, 0, 0, 0]\nclass = 2", fillcolor="#9de539"] ;
325 -> 329 ;
330 [label="tBodyAcc-mean()-X <= 0.163\ngini = 0.357\nsamples = 14\nvalue = [2, 0, 11, 1, 0, 0]\nclass = 3", fillcolor="#6beca0"] ;
318 -> 330 ;
331 [label="gini = 0.0\nsamples = 1\nvalue = [1, 0, 0, 0, 0, 0]\nclass = 1", fillcolor="#e58139"] ;
330 -> 331 ;
332 [label="tBodyAcc-mean()-Z <= -0.057\ngini = 0.272\nsamples = 13\nvalue = [1, 0, 11, 1, 0, 0]\nclass = 3", fillcolor="#5ae996"] ;
330 -> 332 ;
333 [label="tBodyAcc-mean()-Y <= 0.016\ngini = 0.165\nsamples = 11\nvalue = [1, 0, 10, 0, 0, 0]\nclass = 3", fillcolor="#4de88e"] ;
332 -> 333 ;
334 [label="tBodyAcc-mean()-Y <= 0.014\ngini = 0.444\nsamples = 3\nvalue = [1, 0, 2, 0, 0, 0]\nclass = 3", fillcolor="#9cf2c0"] ;
333 -> 334 ;
335 [label="gini = 0.0\nsamples = 2\nvalue = [0, 0, 2, 0, 0, 0]\nclass = 3", fillcolor="#39e581"] ;
334 -> 335 ;
336 [label="gini = 0.0\nsamples = 1\nvalue = [1, 0, 0, 0, 0, 0]\nclass = 1", fillcolor="#e58139"] ;
334 -> 336 ;
337 [label="gini = 0.0\nsamples = 8\nvalue = [0, 0, 8, 0, 0, 0]\nclass = 3", fillcolor="#39e581"] ;
333 -> 337 ;
338 [label="tBodyAcc-mean()-Z <= -0.032\ngini = 0.5\nsamples = 2\nvalue = [0, 0, 1, 1, 0, 0]\nclass = 3", fillcolor="#ffffff"] ;
332 -> 338 ;
339 [label="gini = 0.0\nsamples = 1\nvalue = [0, 0, 0, 1, 0, 0]\nclass = 4", fillcolor="#399de5"] ;
338 -> 339 ;
340 [label="gini = 0.0\nsamples = 1\nvalue = [0, 0, 1, 0, 0, 0]\nclass = 3", fillcolor="#39e581"] ;
338 -> 340 ;
341 [label="tBodyAcc-mean()-Y <= 0.034\ngini = 0.694\nsamples = 11\nvalue = [1, 0, 2, 4, 0, 4]\nclass = 4", fillcolor="#ffffff"] ;
153 -> 341 ;
342 [label="tBodyAcc-mean()-Z <= -0.0\ngini = 0.5\nsamples = 6\nvalue = [1, 0, 1, 0, 0, 4]\nclass = 6", fillcolor="#ef88c4"] ;
341 -> 342 ;
343 [label="gini = 0.0\nsamples = 1\nvalue = [1, 0, 0, 0, 0, 0]\nclass = 1", fillcolor="#e58139"] ;
342 -> 343 ;
344 [label="tBodyAcc-mean()-Z <= 0.059\ngini = 0.32\nsamples = 5\nvalue = [0, 0, 1, 0, 0, 4]\nclass = 6", fillcolor="#ec6ab6"] ;
342 -> 344 ;
345 [label="tBodyAcc-mean()-Z <= 0.02\ngini = 0.5\nsamples = 2\nvalue = [0, 0, 1, 0, 0, 1]\nclass = 3", fillcolor="#ffffff"] ;
344 -> 345 ;
346 [label="gini = 0.0\nsamples = 1\nvalue = [0, 0, 0, 0, 0, 1]\nclass = 6", fillcolor="#e5399d"] ;
345 -> 346 ;
347 [label="gini = 0.0\nsamples = 1\nvalue = [0, 0, 1, 0, 0, 0]\nclass = 3", fillcolor="#39e581"] ;
345 -> 347 ;
348 [label="gini = 0.0\nsamples = 3\nvalue = [0, 0, 0, 0, 0, 3]\nclass = 6", fillcolor="#e5399d"] ;
344 -> 348 ;
349 [label="tBodyAcc-mean()-X <= 0.148\ngini = 0.32\nsamples = 5\nvalue = [0, 0, 1, 4, 0, 0]\nclass = 4", fillcolor="#6ab6ec"] ;
341 -> 349 ;
350 [label="gini = 0.0\nsamples = 2\nvalue = [0, 0, 0, 2, 0, 0]\nclass = 4", fillcolor="#399de5"] ;
349 -> 350 ;
351 [label="tBodyAcc-mean()-X <= 0.162\ngini = 0.444\nsamples = 3\nvalue = [0, 0, 1, 2, 0, 0]\nclass = 4", fillcolor="#9ccef2"] ;
349 -> 351 ;
352 [label="gini = 0.0\nsamples = 1\nvalue = [0, 0, 1, 0, 0, 0]\nclass = 3", fillcolor="#39e581"] ;
351 -> 352 ;
353 [label="gini = 0.0\nsamples = 2\nvalue = [0, 0, 0, 2, 0, 0]\nclass = 4", fillcolor="#399de5"] ;
351 -> 353 ;
354 [label="tBodyAcc-mean()-Z <= -0.108\ngini = 0.447\nsamples = 29\nvalue = [0, 1, 0, 20, 0, 8]\nclass = 4", fillcolor="#8ec7f0"] ;
152 -> 354 ;
355 [label="tBodyAcc-mean()-X <= 0.073\ngini = 0.32\nsamples = 5\nvalue = [0, 1, 0, 0, 0, 4]\nclass = 6", fillcolor="#ec6ab6"] ;
354 -> 355 ;
356 [label="gini = 0.0\nsamples = 4\nvalue = [0, 0, 0, 0, 0, 4]\nclass = 6", fillcolor="#e5399d"] ;
355 -> 356 ;
357 [label="gini = 0.0\nsamples = 1\nvalue = [0, 1, 0, 0, 0, 0]\nclass = 2", fillcolor="#9de539"] ;
355 -> 357 ;
358 [label="tBodyAcc-mean()-X <= -0.296\ngini = 0.278\nsamples = 24\nvalue = [0, 0, 0, 20, 0, 4]\nclass = 4", fillcolor="#61b1ea"] ;
354 -> 358 ;
359 [label="tBodyAcc-mean()-Y <= 0.215\ngini = 0.375\nsamples = 4\nvalue = [0, 0, 0, 1, 0, 3]\nclass = 6", fillcolor="#ee7bbe"] ;
358 -> 359 ;
360 [label="gini = 0.0\nsamples = 3\nvalue = [0, 0, 0, 0, 0, 3]\nclass = 6", fillcolor="#e5399d"] ;
359 -> 360 ;
361 [label="gini = 0.0\nsamples = 1\nvalue = [0, 0, 0, 1, 0, 0]\nclass = 4", fillcolor="#399de5"] ;
359 -> 361 ;
362 [label="tBodyAcc-mean()-X <= 0.167\ngini = 0.095\nsamples = 20\nvalue = [0, 0, 0, 19, 0, 1]\nclass = 4", fillcolor="#43a2e6"] ;
358 -> 362 ;
363 [label="gini = 0.0\nsamples = 19\nvalue = [0, 0, 0, 19, 0, 0]\nclass = 4", fillcolor="#399de5"] ;
362 -> 363 ;
364 [label="gini = 0.0\nsamples = 1\nvalue = [0, 0, 0, 0, 0, 1]\nclass = 6", fillcolor="#e5399d"] ;
362 -> 364 ;
365 [label="tBodyAcc-mean()-Z <= -0.145\ngini = 0.757\nsamples = 1134\nvalue = [404, 270, 229, 61, 31, 139]\nclass = 1", fillcolor="#fbebe0"] ;
151 -> 365 ;
366 [label="tBodyAcc-mean()-Y <= -0.021\ngini = 0.748\nsamples = 162\nvalue = [28, 60, 43, 14, 13, 4]\nclass = 2", fillcolor="#f1fbe3"] ;
365 -> 366 ;
367 [label="tBodyAcc-mean()-X <= 0.229\ngini = 0.785\nsamples = 84\nvalue = [19, 21, 23, 6, 12, 3]\nclass = 3", fillcolor="#f9fefb"] ;
366 -> 367 ;
368 [label="tBodyAcc-mean()-Z <= -0.166\ngini = 0.682\nsamples = 41\nvalue = [7, 16, 15, 1, 0, 2]\nclass = 2", fillcolor="#fbfef7"] ;
367 -> 368 ;
369 [label="tBodyAcc-mean()-Y <= -0.023\ngini = 0.567\nsamples = 23\nvalue = [2, 14, 5, 0, 0, 2]\nclass = 2", fillcolor="#cef29c"] ;
368 -> 369 ;
370 [label="tBodyAcc-mean()-X <= 0.181\ngini = 0.475\nsamples = 20\nvalue = [2, 14, 3, 0, 0, 1]\nclass = 2", fillcolor="#c0ee7f"] ;
369 -> 370 ;
371 [label="gini = 0.0\nsamples = 1\nvalue = [0, 0, 0, 0, 0, 1]\nclass = 6", fillcolor="#e5399d"] ;
370 -> 371 ;
372 [label="tBodyAcc-mean()-X <= 0.199\ngini = 0.421\nsamples = 19\nvalue = [2, 14, 3, 0, 0, 0]\nclass = 2", fillcolor="#bced77"] ;
370 -> 372 ;
373 [label="gini = 0.0\nsamples = 6\nvalue = [0, 6, 0, 0, 0, 0]\nclass = 2", fillcolor="#9de539"] ;
372 -> 373 ;
374 [label="tBodyAcc-mean()-X <= 0.201\ngini = 0.544\nsamples = 13\nvalue = [2, 8, 3, 0, 0, 0]\nclass = 2", fillcolor="#cef29c"] ;
372 -> 374 ;
375 [label="tBodyAcc-mean()-X <= 0.2\ngini = 0.5\nsamples = 2\nvalue = [1, 0, 1, 0, 0, 0]\nclass = 1", fillcolor="#ffffff"] ;
374 -> 375 ;
376 [label="gini = 0.0\nsamples = 1\nvalue = [0, 0, 1, 0, 0, 0]\nclass = 3", fillcolor="#39e581"] ;
375 -> 376 ;
377 [label="gini = 0.0\nsamples = 1\nvalue = [1, 0, 0, 0, 0, 0]\nclass = 1", fillcolor="#e58139"] ;
375 -> 377 ;
378 [label="tBodyAcc-mean()-Y <= -0.03\ngini = 0.43\nsamples = 11\nvalue = [1, 8, 2, 0, 0, 0]\nclass = 2", fillcolor="#beee7b"] ;
374 -> 378 ;
379 [label="tBodyAcc-mean()-Z <= -0.2\ngini = 0.531\nsamples = 8\nvalue = [1, 5, 2, 0, 0, 0]\nclass = 2", fillcolor="#cef29c"] ;
378 -> 379 ;
380 [label="gini = 0.0\nsamples = 1\nvalue = [0, 0, 1, 0, 0, 0]\nclass = 3", fillcolor="#39e581"] ;
379 -> 380 ;
381 [label="tBodyAcc-mean()-X <= 0.208\ngini = 0.449\nsamples = 7\nvalue = [1, 5, 1, 0, 0, 0]\nclass = 2", fillcolor="#beee7b"] ;
379 -> 381 ;
382 [label="tBodyAcc-mean()-X <= 0.205\ngini = 0.667\nsamples = 3\nvalue = [1, 1, 1, 0, 0, 0]\nclass = 1", fillcolor="#ffffff"] ;
381 -> 382 ;
383 [label="gini = 0.0\nsamples = 1\nvalue = [0, 1, 0, 0, 0, 0]\nclass = 2", fillcolor="#9de539"] ;
382 -> 383 ;
384 [label="tBodyAcc-mean()-Z <= -0.184\ngini = 0.5\nsamples = 2\nvalue = [1, 0, 1, 0, 0, 0]\nclass = 1", fillcolor="#ffffff"] ;
382 -> 384 ;
385 [label="gini = 0.0\nsamples = 1\nvalue = [0, 0, 1, 0, 0, 0]\nclass = 3", fillcolor="#39e581"] ;
384 -> 385 ;
386 [label="gini = 0.0\nsamples = 1\nvalue = [1, 0, 0, 0, 0, 0]\nclass = 1", fillcolor="#e58139"] ;
384 -> 386 ;
387 [label="gini = 0.0\nsamples = 4\nvalue = [0, 4, 0, 0, 0, 0]\nclass = 2", fillcolor="#9de539"] ;
381 -> 387 ;
388 [label="gini = 0.0\nsamples = 3\nvalue = [0, 3, 0, 0, 0, 0]\nclass = 2", fillcolor="#9de539"] ;
378 -> 388 ;
389 [label="tBodyAcc-mean()-Z <= -0.169\ngini = 0.444\nsamples = 3\nvalue = [0, 0, 2, 0, 0, 1]\nclass = 3", fillcolor="#9cf2c0"] ;
369 -> 389 ;
390 [label="gini = 0.0\nsamples = 2\nvalue = [0, 0, 2, 0, 0, 0]\nclass = 3", fillcolor="#39e581"] ;
389 -> 390 ;
391 [label="gini = 0.0\nsamples = 1\nvalue = [0, 0, 0, 0, 0, 1]\nclass = 6", fillcolor="#e5399d"] ;
389 -> 391 ;
392 [label="tBodyAcc-mean()-X <= 0.208\ngini = 0.599\nsamples = 18\nvalue = [5, 2, 10, 1, 0, 0]\nclass = 3", fillcolor="#b3f5cf"] ;
368 -> 392 ;
393 [label="gini = 0.0\nsamples = 6\nvalue = [0, 0, 6, 0, 0, 0]\nclass = 3", fillcolor="#39e581"] ;
392 -> 393 ;
394 [label="tBodyAcc-mean()-Z <= -0.153\ngini = 0.681\nsamples = 12\nvalue = [5, 2, 4, 1, 0, 0]\nclass = 1", fillcolor="#fcefe6"] ;
392 -> 394 ;
395 [label="tBodyAcc-mean()-Z <= -0.165\ngini = 0.656\nsamples = 8\nvalue = [2, 1, 4, 1, 0, 0]\nclass = 3", fillcolor="#bdf6d5"] ;
394 -> 395 ;
396 [label="gini = 0.0\nsamples = 1\nvalue = [0, 0, 0, 1, 0, 0]\nclass = 4", fillcolor="#399de5"] ;
395 -> 396 ;
397 [label="tBodyAcc-mean()-Z <= -0.159\ngini = 0.571\nsamples = 7\nvalue = [2, 1, 4, 0, 0, 0]\nclass = 3", fillcolor="#b0f5cd"] ;
395 -> 397 ;
398 [label="tBodyAcc-mean()-Z <= -0.163\ngini = 0.444\nsamples = 3\nvalue = [2, 0, 1, 0, 0, 0]\nclass = 1", fillcolor="#f2c09c"] ;
397 -> 398 ;
399 [label="gini = 0.0\nsamples = 1\nvalue = [0, 0, 1, 0, 0, 0]\nclass = 3", fillcolor="#39e581"] ;
398 -> 399 ;
400 [label="gini = 0.0\nsamples = 2\nvalue = [2, 0, 0, 0, 0, 0]\nclass = 1", fillcolor="#e58139"] ;
398 -> 400 ;
401 [label="tBodyAcc-mean()-Z <= -0.154\ngini = 0.375\nsamples = 4\nvalue = [0, 1, 3, 0, 0, 0]\nclass = 3", fillcolor="#7beeab"] ;
397 -> 401 ;
402 [label="tBodyAcc-mean()-X <= 0.229\ngini = 0.5\nsamples = 2\nvalue = [0, 1, 1, 0, 0, 0]\nclass = 2", fillcolor="#ffffff"] ;
401 -> 402 ;
403 [label="gini = 0.0\nsamples = 1\nvalue = [0, 1, 0, 0, 0, 0]\nclass = 2", fillcolor="#9de539"] ;
402 -> 403 ;
404 [label="gini = 0.0\nsamples = 1\nvalue = [0, 0, 1, 0, 0, 0]\nclass = 3", fillcolor="#39e581"] ;
402 -> 404 ;
405 [label="gini = 0.0\nsamples = 2\nvalue = [0, 0, 2, 0, 0, 0]\nclass = 3", fillcolor="#39e581"] ;
401 -> 405 ;
406 [label="tBodyAcc-mean()-X <= 0.215\ngini = 0.375\nsamples = 4\nvalue = [3, 1, 0, 0, 0, 0]\nclass = 1", fillcolor="#eeab7b"] ;
394 -> 406 ;
407 [label="gini = 0.0\nsamples = 1\nvalue = [0, 1, 0, 0, 0, 0]\nclass = 2", fillcolor="#9de539"] ;
406 -> 407 ;
408 [label="gini = 0.0\nsamples = 3\nvalue = [3, 0, 0, 0, 0, 0]\nclass = 1", fillcolor="#e58139"] ;
406 -> 408 ;
409 [label="tBodyAcc-mean()-Z <= -0.197\ngini = 0.782\nsamples = 43\nvalue = [12, 5, 8, 5, 12, 1]\nclass = 1", fillcolor="#ffffff"] ;
367 -> 409 ;
410 [label="tBodyAcc-mean()-X <= 0.249\ngini = 0.56\nsamples = 10\nvalue = [0, 2, 2, 0, 6, 0]\nclass = 5", fillcolor="#c09cf2"] ;
409 -> 410 ;
411 [label="tBodyAcc-mean()-Z <= -0.292\ngini = 0.375\nsamples = 8\nvalue = [0, 2, 0, 0, 6, 0]\nclass = 5", fillcolor="#ab7bee"] ;
410 -> 411 ;
412 [label="gini = 0.0\nsamples = 1\nvalue = [0, 1, 0, 0, 0, 0]\nclass = 2", fillcolor="#9de539"] ;
411 -> 412 ;
413 [label="tBodyAcc-mean()-X <= 0.246\ngini = 0.245\nsamples = 7\nvalue = [0, 1, 0, 0, 6, 0]\nclass = 5", fillcolor="#965ae9"] ;
411 -> 413 ;
414 [label="gini = 0.0\nsamples = 6\nvalue = [0, 0, 0, 0, 6, 0]\nclass = 5", fillcolor="#8139e5"] ;
413 -> 414 ;
415 [label="gini = 0.0\nsamples = 1\nvalue = [0, 1, 0, 0, 0, 0]\nclass = 2", fillcolor="#9de539"] ;
413 -> 415 ;
416 [label="gini = 0.0\nsamples = 2\nvalue = [0, 0, 2, 0, 0, 0]\nclass = 3", fillcolor="#39e581"] ;
410 -> 416 ;
417 [label="tBodyAcc-mean()-Z <= -0.18\ngini = 0.77\nsamples = 33\nvalue = [12, 3, 6, 5, 6, 1]\nclass = 1", fillcolor="#f9e3d3"] ;
409 -> 417 ;
418 [label="tBodyAcc-mean()-Y <= -0.03\ngini = 0.375\nsamples = 4\nvalue = [3, 0, 0, 0, 0, 1]\nclass = 1", fillcolor="#eeab7b"] ;
417 -> 418 ;
419 [label="gini = 0.0\nsamples = 3\nvalue = [3, 0, 0, 0, 0, 0]\nclass = 1", fillcolor="#e58139"] ;
418 -> 419 ;
420 [label="gini = 0.0\nsamples = 1\nvalue = [0, 0, 0, 0, 0, 1]\nclass = 6", fillcolor="#e5399d"] ;
418 -> 420 ;
421 [label="tBodyAcc-mean()-Y <= -0.043\ngini = 0.778\nsamples = 29\nvalue = [9, 3, 6, 5, 6, 0]\nclass = 1", fillcolor="#fcefe5"] ;
417 -> 421 ;
422 [label="tBodyAcc-mean()-Z <= -0.158\ngini = 0.444\nsamples = 3\nvalue = [0, 1, 0, 0, 2, 0]\nclass = 5", fillcolor="#c09cf2"] ;
421 -> 422 ;
423 [label="gini = 0.0\nsamples = 2\nvalue = [0, 0, 0, 0, 2, 0]\nclass = 5", fillcolor="#8139e5"] ;
422 -> 423 ;
424 [label="gini = 0.0\nsamples = 1\nvalue = [0, 1, 0, 0, 0, 0]\nclass = 2", fillcolor="#9de539"] ;
422 -> 424 ;
425 [label="tBodyAcc-mean()-Y <= -0.038\ngini = 0.76\nsamples = 26\nvalue = [9, 2, 6, 5, 4, 0]\nclass = 1", fillcolor="#fbece1"] ;
421 -> 425 ;
426 [label="tBodyAcc-mean()-Z <= -0.157\ngini = 0.48\nsamples = 5\nvalue = [3, 0, 2, 0, 0, 0]\nclass = 1", fillcolor="#f6d5bd"] ;
425 -> 426 ;
427 [label="tBodyAcc-mean()-X <= 0.234\ngini = 0.444\nsamples = 3\nvalue = [1, 0, 2, 0, 0, 0]\nclass = 3", fillcolor="#9cf2c0"] ;
426 -> 427 ;
428 [label="gini = 0.0\nsamples = 1\nvalue = [1, 0, 0, 0, 0, 0]\nclass = 1", fillcolor="#e58139"] ;
427 -> 428 ;
429 [label="gini = 0.0\nsamples = 2\nvalue = [0, 0, 2, 0, 0, 0]\nclass = 3", fillcolor="#39e581"] ;
427 -> 429 ;
430 [label="gini = 0.0\nsamples = 2\nvalue = [2, 0, 0, 0, 0, 0]\nclass = 1", fillcolor="#e58139"] ;
426 -> 430 ;
431 [label="tBodyAcc-mean()-Y <= -0.035\ngini = 0.78\nsamples = 21\nvalue = [6, 2, 4, 5, 4, 0]\nclass = 1", fillcolor="#fdf7f3"] ;
425 -> 431 ;
432 [label="tBodyAcc-mean()-Z <= -0.158\ngini = 0.5\nsamples = 2\nvalue = [0, 1, 0, 0, 1, 0]\nclass = 2", fillcolor="#ffffff"] ;
431 -> 432 ;
433 [label="gini = 0.0\nsamples = 1\nvalue = [0, 1, 0, 0, 0, 0]\nclass = 2", fillcolor="#9de539"] ;
432 -> 433 ;
434 [label="gini = 0.0\nsamples = 1\nvalue = [0, 0, 0, 0, 1, 0]\nclass = 5", fillcolor="#8139e5"] ;
432 -> 434 ;
435 [label="tBodyAcc-mean()-Z <= -0.177\ngini = 0.759\nsamples = 19\nvalue = [6, 1, 4, 5, 3, 0]\nclass = 1", fillcolor="#fdf6f1"] ;
431 -> 435 ;
436 [label="gini = 0.0\nsamples = 1\nvalue = [0, 0, 1, 0, 0, 0]\nclass = 3", fillcolor="#39e581"] ;
435 -> 436 ;
437 [label="tBodyAcc-mean()-Z <= -0.176\ngini = 0.753\nsamples = 18\nvalue = [6, 1, 3, 5, 3, 0]\nclass = 1", fillcolor="#fdf5f0"] ;
435 -> 437 ;
438 [label="gini = 0.0\nsamples = 2\nvalue = [2, 0, 0, 0, 0, 0]\nclass = 1", fillcolor="#e58139"] ;
437 -> 438 ;
439 [label="tBodyAcc-mean()-Z <= -0.162\ngini = 0.766\nsamples = 16\nvalue = [4, 1, 3, 5, 3, 0]\nclass = 4", fillcolor="#eef7fd"] ;
437 -> 439 ;
440 [label="gini = 0.0\nsamples = 2\nvalue = [0, 0, 0, 2, 0, 0]\nclass = 4", fillcolor="#399de5"] ;
439 -> 440 ;
441 [label="tBodyAcc-mean()-X <= 0.237\ngini = 0.776\nsamples = 14\nvalue = [4, 1, 3, 3, 3, 0]\nclass = 1", fillcolor="#fdf4ed"] ;
439 -> 441 ;
442 [label="gini = 0.0\nsamples = 2\nvalue = [2, 0, 0, 0, 0, 0]\nclass = 1", fillcolor="#e58139"] ;
441 -> 442 ;
443 [label="tBodyAcc-mean()-Y <= -0.031\ngini = 0.778\nsamples = 12\nvalue = [2, 1, 3, 3, 3, 0]\nclass = 3", fillcolor="#ffffff"] ;
441 -> 443 ;
444 [label="tBodyAcc-mean()-Z <= -0.154\ngini = 0.444\nsamples = 3\nvalue = [0, 0, 1, 2, 0, 0]\nclass = 4", fillcolor="#9ccef2"] ;
443 -> 444 ;
445 [label="gini = 0.0\nsamples = 1\nvalue = [0, 0, 1, 0, 0, 0]\nclass = 3", fillcolor="#39e581"] ;
444 -> 445 ;
446 [label="gini = 0.0\nsamples = 2\nvalue = [0, 0, 0, 2, 0, 0]\nclass = 4", fillcolor="#399de5"] ;
444 -> 446 ;
447 [label="tBodyAcc-mean()-Y <= -0.029\ngini = 0.765\nsamples = 9\nvalue = [2, 1, 2, 1, 3, 0]\nclass = 5", fillcolor="#ede3fb"] ;
443 -> 447 ;
448 [label="gini = 0.0\nsamples = 2\nvalue = [0, 0, 0, 0, 2, 0]\nclass = 5", fillcolor="#8139e5"] ;
447 -> 448 ;
449 [label="tBodyAcc-mean()-Z <= -0.154\ngini = 0.776\nsamples = 7\nvalue = [2, 1, 2, 1, 1, 0]\nclass = 1", fillcolor="#ffffff"] ;
447 -> 449 ;
450 [label="tBodyAcc-mean()-X <= 0.252\ngini = 0.5\nsamples = 2\nvalue = [0, 0, 0, 1, 1, 0]\nclass = 4", fillcolor="#ffffff"] ;
449 -> 450 ;
451 [label="gini = 0.0\nsamples = 1\nvalue = [0, 0, 0, 1, 0, 0]\nclass = 4", fillcolor="#399de5"] ;
450 -> 451 ;
452 [label="gini = 0.0\nsamples = 1\nvalue = [0, 0, 0, 0, 1, 0]\nclass = 5", fillcolor="#8139e5"] ;
450 -> 452 ;
453 [label="tBodyAcc-mean()-Z <= -0.149\ngini = 0.64\nsamples = 5\nvalue = [2, 1, 2, 0, 0, 0]\nclass = 1", fillcolor="#ffffff"] ;
449 -> 453 ;
454 [label="tBodyAcc-mean()-X <= 0.241\ngini = 0.5\nsamples = 2\nvalue = [0, 1, 1, 0, 0, 0]\nclass = 2", fillcolor="#ffffff"] ;
453 -> 454 ;
455 [label="gini = 0.0\nsamples = 1\nvalue = [0, 0, 1, 0, 0, 0]\nclass = 3", fillcolor="#39e581"] ;
454 -> 455 ;
456 [label="gini = 0.0\nsamples = 1\nvalue = [0, 1, 0, 0, 0, 0]\nclass = 2", fillcolor="#9de539"] ;
454 -> 456 ;
457 [label="tBodyAcc-mean()-Y <= -0.023\ngini = 0.444\nsamples = 3\nvalue = [2, 0, 1, 0, 0, 0]\nclass = 1", fillcolor="#f2c09c"] ;
453 -> 457 ;
458 [label="gini = 0.0\nsamples = 2\nvalue = [2, 0, 0, 0, 0, 0]\nclass = 1", fillcolor="#e58139"] ;
457 -> 458 ;
459 [label="gini = 0.0\nsamples = 1\nvalue = [0, 0, 1, 0, 0, 0]\nclass = 3", fillcolor="#39e581"] ;
457 -> 459 ;
460 [label="tBodyAcc-mean()-Y <= 0.022\ngini = 0.66\nsamples = 78\nvalue = [9, 39, 20, 8, 1, 1]\nclass = 2", fillcolor="#dff6be"] ;
366 -> 460 ;
461 [label="tBodyAcc-mean()-Z <= -0.378\ngini = 0.608\nsamples = 63\nvalue = [8, 35, 16, 3, 1, 0]\nclass = 2", fillcolor="#d7f4af"] ;
460 -> 461 ;
462 [label="gini = 0.0\nsamples = 1\nvalue = [0, 0, 0, 0, 1, 0]\nclass = 5", fillcolor="#8139e5"] ;
461 -> 462 ;
463 [label="tBodyAcc-mean()-X <= 0.246\ngini = 0.596\nsamples = 62\nvalue = [8, 35, 16, 3, 0, 0]\nclass = 2", fillcolor="#d7f4ad"] ;
461 -> 463 ;
464 [label="tBodyAcc-mean()-Y <= 0.016\ngini = 0.624\nsamples = 49\nvalue = [7, 25, 15, 2, 0, 0]\nclass = 2", fillcolor="#e2f7c5"] ;
463 -> 464 ;
465 [label="tBodyAcc-mean()-Y <= 0.014\ngini = 0.64\nsamples = 46\nvalue = [7, 22, 15, 2, 0, 0]\nclass = 2", fillcolor="#e9f9d2"] ;
464 -> 465 ;
466 [label="tBodyAcc-mean()-X <= 0.189\ngini = 0.632\nsamples = 43\nvalue = [7, 22, 12, 2, 0, 0]\nclass = 2", fillcolor="#dff7bf"] ;
465 -> 466 ;
467 [label="gini = 0.0\nsamples = 1\nvalue = [0, 0, 0, 1, 0, 0]\nclass = 4", fillcolor="#399de5"] ;
466 -> 467 ;
468 [label="tBodyAcc-mean()-Y <= 0.011\ngini = 0.616\nsamples = 42\nvalue = [7, 22, 12, 1, 0, 0]\nclass = 2", fillcolor="#def6bd"] ;
466 -> 468 ;
469 [label="tBodyAcc-mean()-Y <= 0.009\ngini = 0.635\nsamples = 39\nvalue = [7, 19, 12, 1, 0, 0]\nclass = 2", fillcolor="#e6f8cc"] ;
468 -> 469 ;
470 [label="tBodyAcc-mean()-Y <= 0.005\ngini = 0.594\nsamples = 35\nvalue = [6, 19, 10, 0, 0, 0]\nclass = 2", fillcolor="#dcf6b8"] ;
469 -> 470 ;
471 [label="tBodyAcc-mean()-Z <= -0.167\ngini = 0.624\nsamples = 31\nvalue = [6, 15, 10, 0, 0, 0]\nclass = 2", fillcolor="#e8f9d0"] ;
470 -> 471 ;
472 [label="tBodyAcc-mean()-Y <= -0.016\ngini = 0.556\nsamples = 13\nvalue = [1, 5, 7, 0, 0, 0]\nclass = 3", fillcolor="#cef8e0"] ;
471 -> 472 ;
473 [label="gini = 0.0\nsamples = 1\nvalue = [1, 0, 0, 0, 0, 0]\nclass = 1", fillcolor="#e58139"] ;
472 -> 473 ;
474 [label="tBodyAcc-mean()-Z <= -0.208\ngini = 0.486\nsamples = 12\nvalue = [0, 5, 7, 0, 0, 0]\nclass = 3", fillcolor="#c6f8db"] ;
472 -> 474 ;
475 [label="gini = 0.0\nsamples = 2\nvalue = [0, 0, 2, 0, 0, 0]\nclass = 3", fillcolor="#39e581"] ;
474 -> 475 ;
476 [label="tBodyAcc-mean()-Z <= -0.169\ngini = 0.5\nsamples = 10\nvalue = [0, 5, 5, 0, 0, 0]\nclass = 2", fillcolor="#ffffff"] ;
474 -> 476 ;
477 [label="tBodyAcc-mean()-X <= 0.242\ngini = 0.469\nsamples = 8\nvalue = [0, 5, 3, 0, 0, 0]\nclass = 2", fillcolor="#d8f5b0"] ;
476 -> 477 ;
478 [label="tBodyAcc-mean()-X <= 0.228\ngini = 0.408\nsamples = 7\nvalue = [0, 5, 2, 0, 0, 0]\nclass = 2", fillcolor="#c4ef88"] ;
477 -> 478 ;
479 [label="gini = 0.5\nsamples = 4\nvalue = [0, 2, 2, 0, 0, 0]\nclass = 2", fillcolor="#ffffff"] ;
478 -> 479 ;
480 [label="gini = 0.0\nsamples = 3\nvalue = [0, 3, 0, 0, 0, 0]\nclass = 2", fillcolor="#9de539"] ;
478 -> 480 ;
481 [label="gini = 0.0\nsamples = 1\nvalue = [0, 0, 1, 0, 0, 0]\nclass = 3", fillcolor="#39e581"] ;
477 -> 481 ;
482 [label="gini = 0.0\nsamples = 2\nvalue = [0, 0, 2, 0, 0, 0]\nclass = 3", fillcolor="#39e581"] ;
476 -> 482 ;
483 [label="tBodyAcc-mean()-X <= 0.204\ngini = 0.586\nsamples = 18\nvalue = [5, 10, 3, 0, 0, 0]\nclass = 2", fillcolor="#d9f5b3"] ;
471 -> 483 ;
484 [label="tBodyAcc-mean()-Z <= -0.152\ngini = 0.444\nsamples = 3\nvalue = [2, 0, 1, 0, 0, 0]\nclass = 1", fillcolor="#f2c09c"] ;
483 -> 484 ;
485 [label="gini = 0.0\nsamples = 1\nvalue = [0, 0, 1, 0, 0, 0]\nclass = 3", fillcolor="#39e581"] ;
484 -> 485 ;
486 [label="gini = 0.0\nsamples = 2\nvalue = [2, 0, 0, 0, 0, 0]\nclass = 1", fillcolor="#e58139"] ;
484 -> 486 ;
487 [label="tBodyAcc-mean()-Z <= -0.156\ngini = 0.498\nsamples = 15\nvalue = [3, 10, 2, 0, 0, 0]\nclass = 2", fillcolor="#c6f08c"] ;
483 -> 487 ;
488 [label="tBodyAcc-mean()-Z <= -0.165\ngini = 0.642\nsamples = 9\nvalue = [3, 4, 2, 0, 0, 0]\nclass = 2", fillcolor="#effbde"] ;
487 -> 488 ;
489 [label="gini = 0.0\nsamples = 3\nvalue = [0, 3, 0, 0, 0, 0]\nclass = 2", fillcolor="#9de539"] ;
488 -> 489 ;
490 [label="tBodyAcc-mean()-X <= 0.229\ngini = 0.611\nsamples = 6\nvalue = [3, 1, 2, 0, 0, 0]\nclass = 1", fillcolor="#f8e0ce"] ;
488 -> 490 ;
491 [label="gini = 0.0\nsamples = 2\nvalue = [0, 0, 2, 0, 0, 0]\nclass = 3", fillcolor="#39e581"] ;
490 -> 491 ;
492 [label="tBodyAcc-mean()-Y <= -0.01\ngini = 0.375\nsamples = 4\nvalue = [3, 1, 0, 0, 0, 0]\nclass = 1", fillcolor="#eeab7b"] ;
490 -> 492 ;
493 [label="gini = 0.5\nsamples = 2\nvalue = [1, 1, 0, 0, 0, 0]\nclass = 1", fillcolor="#ffffff"] ;
492 -> 493 ;
494 [label="gini = 0.0\nsamples = 2\nvalue = [2, 0, 0, 0, 0, 0]\nclass = 1", fillcolor="#e58139"] ;
492 -> 494 ;
495 [label="gini = 0.0\nsamples = 6\nvalue = [0, 6, 0, 0, 0, 0]\nclass = 2", fillcolor="#9de539"] ;
487 -> 495 ;
496 [label="gini = 0.0\nsamples = 4\nvalue = [0, 4, 0, 0, 0, 0]\nclass = 2", fillcolor="#9de539"] ;
470 -> 496 ;
497 [label="tBodyAcc-mean()-Y <= 0.01\ngini = 0.625\nsamples = 4\nvalue = [1, 0, 2, 1, 0, 0]\nclass = 3", fillcolor="#bdf6d5"] ;
469 -> 497 ;
498 [label="tBodyAcc-mean()-Z <= -0.148\ngini = 0.444\nsamples = 3\nvalue = [1, 0, 2, 0, 0, 0]\nclass = 3", fillcolor="#9cf2c0"] ;
497 -> 498 ;
499 [label="gini = 0.0\nsamples = 1\nvalue = [0, 0, 1, 0, 0, 0]\nclass = 3", fillcolor="#39e581"] ;
498 -> 499 ;
500 [label="tBodyAcc-mean()-X <= 0.236\ngini = 0.5\nsamples = 2\nvalue = [1, 0, 1, 0, 0, 0]\nclass = 1", fillcolor="#ffffff"] ;
498 -> 500 ;
501 [label="gini = 0.0\nsamples = 1\nvalue = [1, 0, 0, 0, 0, 0]\nclass = 1", fillcolor="#e58139"] ;
500 -> 501 ;
502 [label="gini = 0.0\nsamples = 1\nvalue = [0, 0, 1, 0, 0, 0]\nclass = 3", fillcolor="#39e581"] ;
500 -> 502 ;
503 [label="gini = 0.0\nsamples = 1\nvalue = [0, 0, 0, 1, 0, 0]\nclass = 4", fillcolor="#399de5"] ;
497 -> 503 ;
504 [label="gini = 0.0\nsamples = 3\nvalue = [0, 3, 0, 0, 0, 0]\nclass = 2", fillcolor="#9de539"] ;
468 -> 504 ;
505 [label="gini = 0.0\nsamples = 3\nvalue = [0, 0, 3, 0, 0, 0]\nclass = 3", fillcolor="#39e581"] ;
465 -> 505 ;
506 [label="gini = 0.0\nsamples = 3\nvalue = [0, 3, 0, 0, 0, 0]\nclass = 2", fillcolor="#9de539"] ;
464 -> 506 ;
507 [label="tBodyAcc-mean()-Z <= -0.206\ngini = 0.391\nsamples = 13\nvalue = [1, 10, 1, 1, 0, 0]\nclass = 2", fillcolor="#b6ec6b"] ;
463 -> 507 ;
508 [label="tBodyAcc-mean()-X <= 0.252\ngini = 0.5\nsamples = 2\nvalue = [1, 0, 0, 1, 0, 0]\nclass = 1", fillcolor="#ffffff"] ;
507 -> 508 ;
509 [label="gini = 0.0\nsamples = 1\nvalue = [0, 0, 0, 1, 0, 0]\nclass = 4", fillcolor="#399de5"] ;
508 -> 509 ;
510 [label="gini = 0.0\nsamples = 1\nvalue = [1, 0, 0, 0, 0, 0]\nclass = 1", fillcolor="#e58139"] ;
508 -> 510 ;
511 [label="tBodyAcc-mean()-Z <= -0.148\ngini = 0.165\nsamples = 11\nvalue = [0, 10, 1, 0, 0, 0]\nclass = 2", fillcolor="#a7e84d"] ;
507 -> 511 ;
512 [label="gini = 0.0\nsamples = 10\nvalue = [0, 10, 0, 0, 0, 0]\nclass = 2", fillcolor="#9de539"] ;
511 -> 512 ;
513 [label="gini = 0.0\nsamples = 1\nvalue = [0, 0, 1, 0, 0, 0]\nclass = 3", fillcolor="#39e581"] ;
511 -> 513 ;
514 [label="tBodyAcc-mean()-X <= 0.217\ngini = 0.738\nsamples = 15\nvalue = [1, 4, 4, 5, 0, 1]\nclass = 4", fillcolor="#edf6fd"] ;
460 -> 514 ;
515 [label="tBodyAcc-mean()-Z <= -0.152\ngini = 0.56\nsamples = 5\nvalue = [0, 3, 1, 0, 0, 1]\nclass = 2", fillcolor="#cef29c"] ;
514 -> 515 ;
516 [label="tBodyAcc-mean()-Y <= 0.063\ngini = 0.375\nsamples = 4\nvalue = [0, 3, 1, 0, 0, 0]\nclass = 2", fillcolor="#beee7b"] ;
515 -> 516 ;
517 [label="tBodyAcc-mean()-Z <= -0.186\ngini = 0.5\nsamples = 2\nvalue = [0, 1, 1, 0, 0, 0]\nclass = 2", fillcolor="#ffffff"] ;
516 -> 517 ;
518 [label="gini = 0.0\nsamples = 1\nvalue = [0, 0, 1, 0, 0, 0]\nclass = 3", fillcolor="#39e581"] ;
517 -> 518 ;
519 [label="gini = 0.0\nsamples = 1\nvalue = [0, 1, 0, 0, 0, 0]\nclass = 2", fillcolor="#9de539"] ;
517 -> 519 ;
520 [label="gini = 0.0\nsamples = 2\nvalue = [0, 2, 0, 0, 0, 0]\nclass = 2", fillcolor="#9de539"] ;
516 -> 520 ;
521 [label="gini = 0.0\nsamples = 1\nvalue = [0, 0, 0, 0, 0, 1]\nclass = 6", fillcolor="#e5399d"] ;
515 -> 521 ;
522 [label="tBodyAcc-mean()-X <= 0.225\ngini = 0.64\nsamples = 10\nvalue = [1, 1, 3, 5, 0, 0]\nclass = 4", fillcolor="#c6e3f8"] ;
514 -> 522 ;
523 [label="gini = 0.0\nsamples = 3\nvalue = [0, 0, 0, 3, 0, 0]\nclass = 4", fillcolor="#399de5"] ;
522 -> 523 ;
524 [label="tBodyAcc-mean()-X <= 0.244\ngini = 0.694\nsamples = 7\nvalue = [1, 1, 3, 2, 0, 0]\nclass = 3", fillcolor="#d7fae6"] ;
522 -> 524 ;
525 [label="tBodyAcc-mean()-Z <= -0.251\ngini = 0.56\nsamples = 5\nvalue = [1, 1, 3, 0, 0, 0]\nclass = 3", fillcolor="#9cf2c0"] ;
524 -> 525 ;
526 [label="gini = 0.0\nsamples = 1\nvalue = [0, 1, 0, 0, 0, 0]\nclass = 2", fillcolor="#9de539"] ;
525 -> 526 ;
527 [label="tBodyAcc-mean()-Z <= -0.152\ngini = 0.375\nsamples = 4\nvalue = [1, 0, 3, 0, 0, 0]\nclass = 3", fillcolor="#7beeab"] ;
525 -> 527 ;
528 [label="gini = 0.0\nsamples = 3\nvalue = [0, 0, 3, 0, 0, 0]\nclass = 3", fillcolor="#39e581"] ;
527 -> 528 ;
529 [label="gini = 0.0\nsamples = 1\nvalue = [1, 0, 0, 0, 0, 0]\nclass = 1", fillcolor="#e58139"] ;
527 -> 529 ;
530 [label="gini = 0.0\nsamples = 2\nvalue = [0, 0, 0, 2, 0, 0]\nclass = 4", fillcolor="#399de5"] ;
524 -> 530 ;
531 [label="tBodyAcc-mean()-Y <= -0.009\ngini = 0.745\nsamples = 972\nvalue = [376, 210, 186, 47, 18, 135]\nclass = 1", fillcolor="#f9e4d4"] ;
365 -> 531 ;
532 [label="tBodyAcc-mean()-X <= 0.234\ngini = 0.737\nsamples = 624\nvalue = [250, 118, 101, 17, 14, 124]\nclass = 1", fillcolor="#f8dfcd"] ;
531 -> 532 ;
533 [label="tBodyAcc-mean()-Y <= -0.019\ngini = 0.691\nsamples = 297\nvalue = [135, 72, 53, 6, 0, 31]\nclass = 1", fillcolor="#f8dcc8"] ;
532 -> 533 ;
534 [label="tBodyAcc-mean()-Z <= -0.055\ngini = 0.702\nsamples = 196\nvalue = [80, 60, 31, 3, 0, 22]\nclass = 1", fillcolor="#fbece2"] ;
533 -> 534 ;
535 [label="tBodyAcc-mean()-Z <= -0.119\ngini = 0.696\nsamples = 181\nvalue = [78, 52, 26, 3, 0, 22]\nclass = 1", fillcolor="#fae6d7"] ;
534 -> 535 ;
536 [label="tBodyAcc-mean()-X <= 0.214\ngini = 0.631\nsamples = 56\nvalue = [24, 23, 7, 1, 0, 1]\nclass = 1", fillcolor="#fefbf9"] ;
535 -> 536 ;
537 [label="tBodyAcc-mean()-Z <= -0.128\ngini = 0.486\nsamples = 24\nvalue = [6, 16, 2, 0, 0, 0]\nclass = 2", fillcolor="#c9f191"] ;
536 -> 537 ;
538 [label="tBodyAcc-mean()-Z <= -0.133\ngini = 0.612\nsamples = 14\nvalue = [6, 6, 2, 0, 0, 0]\nclass = 1", fillcolor="#ffffff"] ;
537 -> 538 ;
539 [label="tBodyAcc-mean()-X <= 0.213\ngini = 0.496\nsamples = 11\nvalue = [6, 5, 0, 0, 0, 0]\nclass = 1", fillcolor="#fbeade"] ;
538 -> 539 ;
540 [label="tBodyAcc-mean()-Y <= -0.039\ngini = 0.444\nsamples = 9\nvalue = [6, 3, 0, 0, 0, 0]\nclass = 1", fillcolor="#f2c09c"] ;
539 -> 540 ;
541 [label="gini = 0.0\nsamples = 1\nvalue = [0, 1, 0, 0, 0, 0]\nclass = 2", fillcolor="#9de539"] ;
540 -> 541 ;
542 [label="tBodyAcc-mean()-Y <= -0.021\ngini = 0.375\nsamples = 8\nvalue = [6, 2, 0, 0, 0, 0]\nclass = 1", fillcolor="#eeab7b"] ;
540 -> 542 ;
543 [label="tBodyAcc-mean()-Y <= -0.034\ngini = 0.245\nsamples = 7\nvalue = [6, 1, 0, 0, 0, 0]\nclass = 1", fillcolor="#e9965a"] ;
542 -> 543 ;
544 [label="tBodyAcc-mean()-Y <= -0.038\ngini = 0.444\nsamples = 3\nvalue = [2, 1, 0, 0, 0, 0]\nclass = 1", fillcolor="#f2c09c"] ;
543 -> 544 ;
545 [label="gini = 0.0\nsamples = 2\nvalue = [2, 0, 0, 0, 0, 0]\nclass = 1", fillcolor="#e58139"] ;
544 -> 545 ;
546 [label="gini = 0.0\nsamples = 1\nvalue = [0, 1, 0, 0, 0, 0]\nclass = 2", fillcolor="#9de539"] ;
544 -> 546 ;
547 [label="gini = 0.0\nsamples = 4\nvalue = [4, 0, 0, 0, 0, 0]\nclass = 1", fillcolor="#e58139"] ;
543 -> 547 ;
548 [label="gini = 0.0\nsamples = 1\nvalue = [0, 1, 0, 0, 0, 0]\nclass = 2", fillcolor="#9de539"] ;
542 -> 548 ;
549 [label="gini = 0.0\nsamples = 2\nvalue = [0, 2, 0, 0, 0, 0]\nclass = 2", fillcolor="#9de539"] ;
539 -> 549 ;
550 [label="tBodyAcc-mean()-Y <= -0.031\ngini = 0.444\nsamples = 3\nvalue = [0, 1, 2, 0, 0, 0]\nclass = 3", fillcolor="#9cf2c0"] ;
538 -> 550 ;
551 [label="gini = 0.0\nsamples = 1\nvalue = [0, 0, 1, 0, 0, 0]\nclass = 3", fillcolor="#39e581"] ;
550 -> 551 ;
552 [label="tBodyAcc-mean()-X <= 0.211\ngini = 0.5\nsamples = 2\nvalue = [0, 1, 1, 0, 0, 0]\nclass = 2", fillcolor="#ffffff"] ;
550 -> 552 ;
553 [label="gini = 0.0\nsamples = 1\nvalue = [0, 1, 0, 0, 0, 0]\nclass = 2", fillcolor="#9de539"] ;
552 -> 553 ;
554 [label="gini = 0.0\nsamples = 1\nvalue = [0, 0, 1, 0, 0, 0]\nclass = 3", fillcolor="#39e581"] ;
552 -> 554 ;
555 [label="gini = 0.0\nsamples = 10\nvalue = [0, 10, 0, 0, 0, 0]\nclass = 2", fillcolor="#9de539"] ;
537 -> 555 ;
556 [label="tBodyAcc-mean()-Z <= -0.119\ngini = 0.609\nsamples = 32\nvalue = [18, 7, 5, 1, 0, 1]\nclass = 1", fillcolor="#f4c8a8"] ;
536 -> 556 ;
557 [label="tBodyAcc-mean()-X <= 0.23\ngini = 0.582\nsamples = 30\nvalue = [18, 5, 5, 1, 0, 1]\nclass = 1", fillcolor="#f1bd98"] ;
556 -> 557 ;
558 [label="tBodyAcc-mean()-Y <= -0.02\ngini = 0.527\nsamples = 26\nvalue = [17, 5, 2, 1, 0, 1]\nclass = 1", fillcolor="#f0b78e"] ;
557 -> 558 ;
559 [label="tBodyAcc-mean()-X <= 0.223\ngini = 0.502\nsamples = 25\nvalue = [17, 4, 2, 1, 0, 1]\nclass = 1", fillcolor="#efb184"] ;
558 -> 559 ;
560 [label="tBodyAcc-mean()-Y <= -0.047\ngini = 0.622\nsamples = 15\nvalue = [8, 4, 2, 1, 0, 0]\nclass = 1", fillcolor="#f6d1b7"] ;
559 -> 560 ;
561 [label="gini = 0.0\nsamples = 2\nvalue = [0, 2, 0, 0, 0, 0]\nclass = 2", fillcolor="#9de539"] ;
560 -> 561 ;
562 [label="tBodyAcc-mean()-Y <= -0.026\ngini = 0.568\nsamples = 13\nvalue = [8, 2, 2, 1, 0, 0]\nclass = 1", fillcolor="#f1ba93"] ;
560 -> 562 ;
563 [label="tBodyAcc-mean()-Z <= -0.131\ngini = 0.375\nsamples = 8\nvalue = [6, 2, 0, 0, 0, 0]\nclass = 1", fillcolor="#eeab7b"] ;
562 -> 563 ;
564 [label="gini = 0.0\nsamples = 1\nvalue = [0, 1, 0, 0, 0, 0]\nclass = 2", fillcolor="#9de539"] ;
563 -> 564 ;
565 [label="tBodyAcc-mean()-X <= 0.218\ngini = 0.245\nsamples = 7\nvalue = [6, 1, 0, 0, 0, 0]\nclass = 1", fillcolor="#e9965a"] ;
563 -> 565 ;
566 [label="tBodyAcc-mean()-X <= 0.216\ngini = 0.444\nsamples = 3\nvalue = [2, 1, 0, 0, 0, 0]\nclass = 1", fillcolor="#f2c09c"] ;
565 -> 566 ;
567 [label="gini = 0.0\nsamples = 2\nvalue = [2, 0, 0, 0, 0, 0]\nclass = 1", fillcolor="#e58139"] ;
566 -> 567 ;
568 [label="gini = 0.0\nsamples = 1\nvalue = [0, 1, 0, 0, 0, 0]\nclass = 2", fillcolor="#9de539"] ;
566 -> 568 ;
569 [label="gini = 0.0\nsamples = 4\nvalue = [4, 0, 0, 0, 0, 0]\nclass = 1", fillcolor="#e58139"] ;
565 -> 569 ;
570 [label="tBodyAcc-mean()-Z <= -0.133\ngini = 0.64\nsamples = 5\nvalue = [2, 0, 2, 1, 0, 0]\nclass = 1", fillcolor="#ffffff"] ;
562 -> 570 ;
571 [label="gini = 0.0\nsamples = 2\nvalue = [2, 0, 0, 0, 0, 0]\nclass = 1", fillcolor="#e58139"] ;
570 -> 571 ;
572 [label="tBodyAcc-mean()-X <= 0.216\ngini = 0.444\nsamples = 3\nvalue = [0, 0, 2, 1, 0, 0]\nclass = 3", fillcolor="#9cf2c0"] ;
570 -> 572 ;
573 [label="gini = 0.0\nsamples = 1\nvalue = [0, 0, 0, 1, 0, 0]\nclass = 4", fillcolor="#399de5"] ;
572 -> 573 ;
574 [label="gini = 0.0\nsamples = 2\nvalue = [0, 0, 2, 0, 0, 0]\nclass = 3", fillcolor="#39e581"] ;
572 -> 574 ;
575 [label="tBodyAcc-mean()-Z <= -0.13\ngini = 0.18\nsamples = 10\nvalue = [9, 0, 0, 0, 0, 1]\nclass = 1", fillcolor="#e88f4f"] ;
559 -> 575 ;
576 [label="tBodyAcc-mean()-Z <= -0.133\ngini = 0.375\nsamples = 4\nvalue = [3, 0, 0, 0, 0, 1]\nclass = 1", fillcolor="#eeab7b"] ;
575 -> 576 ;
577 [label="gini = 0.0\nsamples = 3\nvalue = [3, 0, 0, 0, 0, 0]\nclass = 1", fillcolor="#e58139"] ;
576 -> 577 ;
578 [label="gini = 0.0\nsamples = 1\nvalue = [0, 0, 0, 0, 0, 1]\nclass = 6", fillcolor="#e5399d"] ;
576 -> 578 ;
579 [label="gini = 0.0\nsamples = 6\nvalue = [6, 0, 0, 0, 0, 0]\nclass = 1", fillcolor="#e58139"] ;
575 -> 579 ;
580 [label="gini = 0.0\nsamples = 1\nvalue = [0, 1, 0, 0, 0, 0]\nclass = 2", fillcolor="#9de539"] ;
558 -> 580 ;
581 [label="tBodyAcc-mean()-X <= 0.233\ngini = 0.375\nsamples = 4\nvalue = [1, 0, 3, 0, 0, 0]\nclass = 3", fillcolor="#7beeab"] ;
557 -> 581 ;
582 [label="gini = 0.0\nsamples = 3\nvalue = [0, 0, 3, 0, 0, 0]\nclass = 3", fillcolor="#39e581"] ;
581 -> 582 ;
583 [label="gini = 0.0\nsamples = 1\nvalue = [1, 0, 0, 0, 0, 0]\nclass = 1", fillcolor="#e58139"] ;
581 -> 583 ;
584 [label="gini = 0.0\nsamples = 2\nvalue = [0, 2, 0, 0, 0, 0]\nclass = 2", fillcolor="#9de539"] ;
556 -> 584 ;
585 [label="tBodyAcc-mean()-X <= 0.233\ngini = 0.708\nsamples = 125\nvalue = [54, 29, 19, 2, 0, 21]\nclass = 1", fillcolor="#f8decb"] ;
535 -> 585 ;
586 [label="tBodyAcc-mean()-Y <= -0.02\ngini = 0.706\nsamples = 123\nvalue = [54, 27, 19, 2, 0, 21]\nclass = 1", fillcolor="#f8dcc7"] ;
585 -> 586 ;
587 [label="tBodyAcc-mean()-Z <= -0.118\ngini = 0.715\nsamples = 117\nvalue = [49, 27, 19, 2, 0, 20]\nclass = 1", fillcolor="#f9e0cf"] ;
586 -> 587 ;
588 [label="gini = 0.0\nsamples = 3\nvalue = [3, 0, 0, 0, 0, 0]\nclass = 1", fillcolor="#e58139"] ;
587 -> 588 ;
589 [label="tBodyAcc-mean()-Z <= -0.117\ngini = 0.722\nsamples = 114\nvalue = [46, 27, 19, 2, 0, 20]\nclass = 1", fillcolor="#f9e3d4"] ;
587 -> 589 ;
590 [label="gini = 0.0\nsamples = 3\nvalue = [0, 0, 3, 0, 0, 0]\nclass = 3", fillcolor="#39e581"] ;
589 -> 590 ;
591 [label="tBodyAcc-mean()-Z <= -0.115\ngini = 0.716\nsamples = 111\nvalue = [46, 27, 16, 2, 0, 20]\nclass = 1", fillcolor="#f9e2d2"] ;
589 -> 591 ;
592 [label="gini = 0.0\nsamples = 2\nvalue = [0, 2, 0, 0, 0, 0]\nclass = 2", fillcolor="#9de539"] ;
591 -> 592 ;
593 [label="tBodyAcc-mean()-Z <= -0.112\ngini = 0.714\nsamples = 109\nvalue = [46, 25, 16, 2, 0, 20]\nclass = 1", fillcolor="#f8e0ce"] ;
591 -> 593 ;
594 [label="tBodyAcc-mean()-Y <= -0.021\ngini = 0.219\nsamples = 8\nvalue = [7, 0, 0, 0, 0, 1]\nclass = 1", fillcolor="#e99355"] ;
593 -> 594 ;
595 [label="gini = 0.0\nsamples = 7\nvalue = [7, 0, 0, 0, 0, 0]\nclass = 1", fillcolor="#e58139"] ;
594 -> 595 ;
596 [label="gini = 0.0\nsamples = 1\nvalue = [0, 0, 0, 0, 0, 1]\nclass = 6", fillcolor="#e5399d"] ;
594 -> 596 ;
597 [label="tBodyAcc-mean()-Y <= -0.021\ngini = 0.729\nsamples = 101\nvalue = [39, 25, 16, 2, 0, 19]\nclass = 1", fillcolor="#fae8db"] ;
593 -> 597 ;
598 [label="tBodyAcc-mean()-Y <= -0.022\ngini = 0.722\nsamples = 97\nvalue = [39, 23, 14, 2, 0, 19]\nclass = 1", fillcolor="#f9e4d4"] ;
597 -> 598 ;
599 [label="tBodyAcc-mean()-Y <= -0.026\ngini = 0.74\nsamples = 87\nvalue = [31, 22, 14, 2, 0, 18]\nclass = 1", fillcolor="#fbeee4"] ;
598 -> 599 ;
600 [label="tBodyAcc-mean()-Z <= -0.111\ngini = 0.71\nsamples = 63\nvalue = [27, 14, 12, 1, 0, 9]\nclass = 1", fillcolor="#f8deca"] ;
599 -> 600 ;
601 [label="gini = 0.0\nsamples = 2\nvalue = [0, 2, 0, 0, 0, 0]\nclass = 2", fillcolor="#9de539"] ;
600 -> 601 ;
602 [label="tBodyAcc-mean()-Z <= -0.078\ngini = 0.705\nsamples = 61\nvalue = [27, 12, 12, 1, 0, 9]\nclass = 1", fillcolor="#f7d8c2"] ;
600 -> 602 ;
603 [label="gini = 0.707\nsamples = 42\nvalue = [17, 11, 9, 0, 0, 5]\nclass = 1", fillcolor="#fae7d9"] ;
602 -> 603 ;
604 [label="gini = 0.648\nsamples = 19\nvalue = [10, 1, 3, 1, 0, 4]\nclass = 1", fillcolor="#f5cdb0"] ;
602 -> 604 ;
605 [label="tBodyAcc-mean()-X <= 0.198\ngini = 0.712\nsamples = 24\nvalue = [4, 8, 2, 1, 0, 9]\nclass = 6", fillcolor="#fdf3f9"] ;
599 -> 605 ;
606 [label="tBodyAcc-mean()-Z <= -0.105\ngini = 0.48\nsamples = 5\nvalue = [0, 3, 2, 0, 0, 0]\nclass = 2", fillcolor="#def6bd"] ;
605 -> 606 ;
607 [label="gini = 0.0\nsamples = 1\nvalue = [0, 0, 1, 0, 0, 0]\nclass = 3", fillcolor="#39e581"] ;
606 -> 607 ;
608 [label="gini = 0.375\nsamples = 4\nvalue = [0, 3, 1, 0, 0, 0]\nclass = 2", fillcolor="#beee7b"] ;
606 -> 608 ;
609 [label="tBodyAcc-mean()-X <= 0.214\ngini = 0.659\nsamples = 19\nvalue = [4, 5, 0, 1, 0, 9]\nclass = 6", fillcolor="#f8c6e3"] ;
605 -> 609 ;
610 [label="gini = 0.278\nsamples = 6\nvalue = [1, 0, 0, 0, 0, 5]\nclass = 6", fillcolor="#ea61b1"] ;
609 -> 610 ;
611 [label="gini = 0.698\nsamples = 13\nvalue = [3, 5, 0, 1, 0, 4]\nclass = 2", fillcolor="#f4fce9"] ;
609 -> 611 ;
612 [label="tBodyAcc-mean()-Y <= -0.021\ngini = 0.34\nsamples = 10\nvalue = [8, 1, 0, 0, 0, 1]\nclass = 1", fillcolor="#eb9d65"] ;
598 -> 612 ;
613 [label="gini = 0.0\nsamples = 7\nvalue = [7, 0, 0, 0, 0, 0]\nclass = 1", fillcolor="#e58139"] ;
612 -> 613 ;
614 [label="tBodyAcc-mean()-Y <= -0.021\ngini = 0.667\nsamples = 3\nvalue = [1, 1, 0, 0, 0, 1]\nclass = 1", fillcolor="#ffffff"] ;
612 -> 614 ;
615 [label="gini = 0.0\nsamples = 1\nvalue = [0, 1, 0, 0, 0, 0]\nclass = 2", fillcolor="#9de539"] ;
614 -> 615 ;
616 [label="tBodyAcc-mean()-Z <= -0.081\ngini = 0.5\nsamples = 2\nvalue = [1, 0, 0, 0, 0, 1]\nclass = 1", fillcolor="#ffffff"] ;
614 -> 616 ;
617 [label="gini = 0.0\nsamples = 1\nvalue = [1, 0, 0, 0, 0, 0]\nclass = 1", fillcolor="#e58139"] ;
616 -> 617 ;
618 [label="gini = 0.0\nsamples = 1\nvalue = [0, 0, 0, 0, 0, 1]\nclass = 6", fillcolor="#e5399d"] ;
616 -> 618 ;
619 [label="tBodyAcc-mean()-X <= 0.222\ngini = 0.5\nsamples = 4\nvalue = [0, 2, 2, 0, 0, 0]\nclass = 2", fillcolor="#ffffff"] ;
597 -> 619 ;
620 [label="gini = 0.0\nsamples = 2\nvalue = [0, 0, 2, 0, 0, 0]\nclass = 3", fillcolor="#39e581"] ;
619 -> 620 ;
621 [label="gini = 0.0\nsamples = 2\nvalue = [0, 2, 0, 0, 0, 0]\nclass = 2", fillcolor="#9de539"] ;
619 -> 621 ;
622 [label="tBodyAcc-mean()-Y <= -0.019\ngini = 0.278\nsamples = 6\nvalue = [5, 0, 0, 0, 0, 1]\nclass = 1", fillcolor="#ea9a61"] ;
586 -> 622 ;
623 [label="gini = 0.0\nsamples = 5\nvalue = [5, 0, 0, 0, 0, 0]\nclass = 1", fillcolor="#e58139"] ;
622 -> 623 ;
624 [label="gini = 0.0\nsamples = 1\nvalue = [0, 0, 0, 0, 0, 1]\nclass = 6", fillcolor="#e5399d"] ;
622 -> 624 ;
625 [label="gini = 0.0\nsamples = 2\nvalue = [0, 2, 0, 0, 0, 0]\nclass = 2", fillcolor="#9de539"] ;
585 -> 625 ;
626 [label="tBodyAcc-mean()-Y <= -0.037\ngini = 0.587\nsamples = 15\nvalue = [2, 8, 5, 0, 0, 0]\nclass = 2", fillcolor="#e2f7c4"] ;
534 -> 626 ;
627 [label="tBodyAcc-mean()-X <= 0.199\ngini = 0.571\nsamples = 7\nvalue = [1, 2, 4, 0, 0, 0]\nclass = 3", fillcolor="#b0f5cd"] ;
626 -> 627 ;
628 [label="tBodyAcc-mean()-Y <= -0.043\ngini = 0.5\nsamples = 2\nvalue = [1, 1, 0, 0, 0, 0]\nclass = 1", fillcolor="#ffffff"] ;
627 -> 628 ;
629 [label="gini = 0.0\nsamples = 1\nvalue = [1, 0, 0, 0, 0, 0]\nclass = 1", fillcolor="#e58139"] ;
628 -> 629 ;
630 [label="gini = 0.0\nsamples = 1\nvalue = [0, 1, 0, 0, 0, 0]\nclass = 2", fillcolor="#9de539"] ;
628 -> 630 ;
631 [label="tBodyAcc-mean()-Y <= -0.05\ngini = 0.32\nsamples = 5\nvalue = [0, 1, 4, 0, 0, 0]\nclass = 3", fillcolor="#6aeca0"] ;
627 -> 631 ;
632 [label="gini = 0.0\nsamples = 1\nvalue = [0, 1, 0, 0, 0, 0]\nclass = 2", fillcolor="#9de539"] ;
631 -> 632 ;
633 [label="gini = 0.0\nsamples = 4\nvalue = [0, 0, 4, 0, 0, 0]\nclass = 3", fillcolor="#39e581"] ;
631 -> 633 ;
634 [label="tBodyAcc-mean()-Y <= -0.02\ngini = 0.406\nsamples = 8\nvalue = [1, 6, 1, 0, 0, 0]\nclass = 2", fillcolor="#b9ec72"] ;
626 -> 634 ;
635 [label="tBodyAcc-mean()-X <= 0.216\ngini = 0.245\nsamples = 7\nvalue = [0, 6, 1, 0, 0, 0]\nclass = 2", fillcolor="#ade95a"] ;
634 -> 635 ;
636 [label="gini = 0.0\nsamples = 4\nvalue = [0, 4, 0, 0, 0, 0]\nclass = 2", fillcolor="#9de539"] ;
635 -> 636 ;
637 [label="tBodyAcc-mean()-Y <= -0.031\ngini = 0.444\nsamples = 3\nvalue = [0, 2, 1, 0, 0, 0]\nclass = 2", fillcolor="#cef29c"] ;
635 -> 637 ;
638 [label="gini = 0.0\nsamples = 2\nvalue = [0, 2, 0, 0, 0, 0]\nclass = 2", fillcolor="#9de539"] ;
637 -> 638 ;
639 [label="gini = 0.0\nsamples = 1\nvalue = [0, 0, 1, 0, 0, 0]\nclass = 3", fillcolor="#39e581"] ;
637 -> 639 ;
640 [label="gini = 0.0\nsamples = 1\nvalue = [1, 0, 0, 0, 0, 0]\nclass = 1", fillcolor="#e58139"] ;
634 -> 640 ;
641 [label="tBodyAcc-mean()-Z <= -0.132\ngini = 0.633\nsamples = 101\nvalue = [55, 12, 22, 3, 0, 9]\nclass = 1", fillcolor="#f4caac"] ;
533 -> 641 ;
642 [label="tBodyAcc-mean()-X <= 0.212\ngini = 0.375\nsamples = 4\nvalue = [0, 1, 3, 0, 0, 0]\nclass = 3", fillcolor="#7beeab"] ;
641 -> 642 ;
643 [label="gini = 0.0\nsamples = 3\nvalue = [0, 0, 3, 0, 0, 0]\nclass = 3", fillcolor="#39e581"] ;
642 -> 643 ;
644 [label="gini = 0.0\nsamples = 1\nvalue = [0, 1, 0, 0, 0, 0]\nclass = 2", fillcolor="#9de539"] ;
642 -> 644 ;
645 [label="tBodyAcc-mean()-Z <= -0.065\ngini = 0.618\nsamples = 97\nvalue = [55, 11, 19, 3, 0, 9]\nclass = 1", fillcolor="#f3c5a4"] ;
641 -> 645 ;
646 [label="tBodyAcc-mean()-Z <= -0.097\ngini = 0.588\nsamples = 83\nvalue = [50, 9, 13, 2, 0, 9]\nclass = 1", fillcolor="#f1bc96"] ;
645 -> 646 ;
647 [label="tBodyAcc-mean()-X <= 0.213\ngini = 0.688\nsamples = 42\nvalue = [20, 4, 9, 2, 0, 7]\nclass = 1", fillcolor="#f6d5bd"] ;
646 -> 647 ;
648 [label="tBodyAcc-mean()-X <= 0.209\ngini = 0.714\nsamples = 14\nvalue = [3, 3, 6, 1, 0, 1]\nclass = 3", fillcolor="#c9f8dd"] ;
647 -> 648 ;
649 [label="tBodyAcc-mean()-Y <= -0.018\ngini = 0.675\nsamples = 13\nvalue = [3, 3, 6, 0, 0, 1]\nclass = 3", fillcolor="#c4f7d9"] ;
648 -> 649 ;
650 [label="gini = 0.0\nsamples = 1\nvalue = [0, 0, 0, 0, 0, 1]\nclass = 6", fillcolor="#e5399d"] ;
649 -> 650 ;
651 [label="tBodyAcc-mean()-Y <= -0.015\ngini = 0.625\nsamples = 12\nvalue = [3, 3, 6, 0, 0, 0]\nclass = 3", fillcolor="#bdf6d5"] ;
649 -> 651 ;
652 [label="tBodyAcc-mean()-Z <= -0.102\ngini = 0.32\nsamples = 5\nvalue = [1, 0, 4, 0, 0, 0]\nclass = 3", fillcolor="#6aeca0"] ;
651 -> 652 ;
653 [label="gini = 0.0\nsamples = 4\nvalue = [0, 0, 4, 0, 0, 0]\nclass = 3", fillcolor="#39e581"] ;
652 -> 653 ;
654 [label="gini = 0.0\nsamples = 1\nvalue = [1, 0, 0, 0, 0, 0]\nclass = 1", fillcolor="#e58139"] ;
652 -> 654 ;
655 [label="tBodyAcc-mean()-Z <= -0.127\ngini = 0.653\nsamples = 7\nvalue = [2, 3, 2, 0, 0, 0]\nclass = 2", fillcolor="#ebfad7"] ;
651 -> 655 ;
656 [label="gini = 0.0\nsamples = 1\nvalue = [1, 0, 0, 0, 0, 0]\nclass = 1", fillcolor="#e58139"] ;
655 -> 656 ;
657 [label="tBodyAcc-mean()-Z <= -0.117\ngini = 0.611\nsamples = 6\nvalue = [1, 3, 2, 0, 0, 0]\nclass = 2", fillcolor="#e6f8ce"] ;
655 -> 657 ;
658 [label="gini = 0.0\nsamples = 2\nvalue = [0, 2, 0, 0, 0, 0]\nclass = 2", fillcolor="#9de539"] ;
657 -> 658 ;
659 [label="tBodyAcc-mean()-Y <= -0.014\ngini = 0.625\nsamples = 4\nvalue = [1, 1, 2, 0, 0, 0]\nclass = 3", fillcolor="#bdf6d5"] ;
657 -> 659 ;
660 [label="tBodyAcc-mean()-X <= 0.201\ngini = 0.5\nsamples = 2\nvalue = [1, 1, 0, 0, 0, 0]\nclass = 1", fillcolor="#ffffff"] ;
659 -> 660 ;
661 [label="gini = 0.0\nsamples = 1\nvalue = [1, 0, 0, 0, 0, 0]\nclass = 1", fillcolor="#e58139"] ;
660 -> 661 ;
662 [label="gini = 0.0\nsamples = 1\nvalue = [0, 1, 0, 0, 0, 0]\nclass = 2", fillcolor="#9de539"] ;
660 -> 662 ;
663 [label="gini = 0.0\nsamples = 2\nvalue = [0, 0, 2, 0, 0, 0]\nclass = 3", fillcolor="#39e581"] ;
659 -> 663 ;
664 [label="gini = 0.0\nsamples = 1\nvalue = [0, 0, 0, 1, 0, 0]\nclass = 4", fillcolor="#399de5"] ;
648 -> 664 ;
665 [label="tBodyAcc-mean()-X <= 0.228\ngini = 0.571\nsamples = 28\nvalue = [17, 1, 3, 1, 0, 6]\nclass = 1", fillcolor="#f2c09c"] ;
647 -> 665 ;
666 [label="tBodyAcc-mean()-Y <= -0.01\ngini = 0.444\nsamples = 18\nvalue = [13, 0, 3, 1, 0, 1]\nclass = 1", fillcolor="#eeab7b"] ;
665 -> 666 ;
667 [label="tBodyAcc-mean()-Z <= -0.108\ngini = 0.347\nsamples = 15\nvalue = [12, 0, 1, 1, 0, 1]\nclass = 1", fillcolor="#eb9c63"] ;
666 -> 667 ;
668 [label="tBodyAcc-mean()-Y <= -0.013\ngini = 0.198\nsamples = 9\nvalue = [8, 0, 0, 1, 0, 0]\nclass = 1", fillcolor="#e89152"] ;
667 -> 668 ;
669 [label="gini = 0.0\nsamples = 6\nvalue = [6, 0, 0, 0, 0, 0]\nclass = 1", fillcolor="#e58139"] ;
668 -> 669 ;
670 [label="tBodyAcc-mean()-X <= 0.221\ngini = 0.444\nsamples = 3\nvalue = [2, 0, 0, 1, 0, 0]\nclass = 1", fillcolor="#f2c09c"] ;
668 -> 670 ;
671 [label="gini = 0.0\nsamples = 2\nvalue = [2, 0, 0, 0, 0, 0]\nclass = 1", fillcolor="#e58139"] ;
670 -> 671 ;
672 [label="gini = 0.0\nsamples = 1\nvalue = [0, 0, 0, 1, 0, 0]\nclass = 4", fillcolor="#399de5"] ;
670 -> 672 ;
673 [label="tBodyAcc-mean()-Z <= -0.105\ngini = 0.5\nsamples = 6\nvalue = [4, 0, 1, 0, 0, 1]\nclass = 1", fillcolor="#efb388"] ;
667 -> 673 ;
674 [label="gini = 0.0\nsamples = 1\nvalue = [0, 0, 1, 0, 0, 0]\nclass = 3", fillcolor="#39e581"] ;
673 -> 674 ;
675 [label="tBodyAcc-mean()-X <= 0.217\ngini = 0.32\nsamples = 5\nvalue = [4, 0, 0, 0, 0, 1]\nclass = 1", fillcolor="#eca06a"] ;
673 -> 675 ;
676 [label="tBodyAcc-mean()-X <= 0.215\ngini = 0.5\nsamples = 2\nvalue = [1, 0, 0, 0, 0, 1]\nclass = 1", fillcolor="#ffffff"] ;
675 -> 676 ;
677 [label="gini = 0.0\nsamples = 1\nvalue = [1, 0, 0, 0, 0, 0]\nclass = 1", fillcolor="#e58139"] ;
676 -> 677 ;
678 [label="gini = 0.0\nsamples = 1\nvalue = [0, 0, 0, 0, 0, 1]\nclass = 6", fillcolor="#e5399d"] ;
676 -> 678 ;
679 [label="gini = 0.0\nsamples = 3\nvalue = [3, 0, 0, 0, 0, 0]\nclass = 1", fillcolor="#e58139"] ;
675 -> 679 ;
680 [label="tBodyAcc-mean()-Y <= -0.009\ngini = 0.444\nsamples = 3\nvalue = [1, 0, 2, 0, 0, 0]\nclass = 3", fillcolor="#9cf2c0"] ;
666 -> 680 ;
681 [label="gini = 0.0\nsamples = 2\nvalue = [0, 0, 2, 0, 0, 0]\nclass = 3", fillcolor="#39e581"] ;
680 -> 681 ;
682 [label="gini = 0.0\nsamples = 1\nvalue = [1, 0, 0, 0, 0, 0]\nclass = 1", fillcolor="#e58139"] ;
680 -> 682 ;
683 [label="tBodyAcc-mean()-X <= 0.23\ngini = 0.58\nsamples = 10\nvalue = [4, 1, 0, 0, 0, 5]\nclass = 6", fillcolor="#fbdeef"] ;
665 -> 683 ;
684 [label="gini = 0.0\nsamples = 4\nvalue = [0, 0, 0, 0, 0, 4]\nclass = 6", fillcolor="#e5399d"] ;
683 -> 684 ;
685 [label="tBodyAcc-mean()-X <= 0.232\ngini = 0.5\nsamples = 6\nvalue = [4, 1, 0, 0, 0, 1]\nclass = 1", fillcolor="#efb388"] ;
683 -> 685 ;
686 [label="gini = 0.0\nsamples = 4\nvalue = [4, 0, 0, 0, 0, 0]\nclass = 1", fillcolor="#e58139"] ;
685 -> 686 ;
687 [label="tBodyAcc-mean()-Z <= -0.109\ngini = 0.5\nsamples = 2\nvalue = [0, 1, 0, 0, 0, 1]\nclass = 2", fillcolor="#ffffff"] ;
685 -> 687 ;
688 [label="gini = 0.0\nsamples = 1\nvalue = [0, 1, 0, 0, 0, 0]\nclass = 2", fillcolor="#9de539"] ;
687 -> 688 ;
689 [label="gini = 0.0\nsamples = 1\nvalue = [0, 0, 0, 0, 0, 1]\nclass = 6", fillcolor="#e5399d"] ;
687 -> 689 ;
690 [label="tBodyAcc-mean()-X <= 0.213\ngini = 0.438\nsamples = 41\nvalue = [30, 5, 4, 0, 0, 2]\nclass = 1", fillcolor="#eda876"] ;
646 -> 690 ;
691 [label="gini = 0.0\nsamples = 13\nvalue = [13, 0, 0, 0, 0, 0]\nclass = 1", fillcolor="#e58139"] ;
690 -> 691 ;
692 [label="tBodyAcc-mean()-X <= 0.218\ngini = 0.574\nsamples = 28\nvalue = [17, 5, 4, 0, 0, 2]\nclass = 1", fillcolor="#f1bd98"] ;
690 -> 692 ;
693 [label="gini = 0.0\nsamples = 3\nvalue = [0, 3, 0, 0, 0, 0]\nclass = 2", fillcolor="#9de539"] ;
692 -> 693 ;
694 [label="tBodyAcc-mean()-X <= 0.227\ngini = 0.499\nsamples = 25\nvalue = [17, 2, 4, 0, 0, 2]\nclass = 1", fillcolor="#efb184"] ;
692 -> 694 ;
695 [label="tBodyAcc-mean()-X <= 0.226\ngini = 0.62\nsamples = 10\nvalue = [5, 0, 3, 0, 0, 2]\nclass = 1", fillcolor="#f8dbc6"] ;
694 -> 695 ;
696 [label="tBodyAcc-mean()-Z <= -0.081\ngini = 0.531\nsamples = 8\nvalue = [5, 0, 1, 0, 0, 2]\nclass = 1", fillcolor="#f2c09c"] ;
695 -> 696 ;
697 [label="tBodyAcc-mean()-Z <= -0.093\ngini = 0.278\nsamples = 6\nvalue = [5, 0, 0, 0, 0, 1]\nclass = 1", fillcolor="#ea9a61"] ;
696 -> 697 ;
698 [label="tBodyAcc-mean()-X <= 0.224\ngini = 0.5\nsamples = 2\nvalue = [1, 0, 0, 0, 0, 1]\nclass = 1", fillcolor="#ffffff"] ;
697 -> 698 ;
699 [label="gini = 0.0\nsamples = 1\nvalue = [1, 0, 0, 0, 0, 0]\nclass = 1", fillcolor="#e58139"] ;
698 -> 699 ;
700 [label="gini = 0.0\nsamples = 1\nvalue = [0, 0, 0, 0, 0, 1]\nclass = 6", fillcolor="#e5399d"] ;
698 -> 700 ;
701 [label="gini = 0.0\nsamples = 4\nvalue = [4, 0, 0, 0, 0, 0]\nclass = 1", fillcolor="#e58139"] ;
697 -> 701 ;
702 [label="tBodyAcc-mean()-Y <= -0.017\ngini = 0.5\nsamples = 2\nvalue = [0, 0, 1, 0, 0, 1]\nclass = 3", fillcolor="#ffffff"] ;
696 -> 702 ;
703 [label="gini = 0.0\nsamples = 1\nvalue = [0, 0, 1, 0, 0, 0]\nclass = 3", fillcolor="#39e581"] ;
702 -> 703 ;
704 [label="gini = 0.0\nsamples = 1\nvalue = [0, 0, 0, 0, 0, 1]\nclass = 6", fillcolor="#e5399d"] ;
702 -> 704 ;
705 [label="gini = 0.0\nsamples = 2\nvalue = [0, 0, 2, 0, 0, 0]\nclass = 3", fillcolor="#39e581"] ;
695 -> 705 ;
706 [label="tBodyAcc-mean()-Z <= -0.088\ngini = 0.338\nsamples = 15\nvalue = [12, 2, 1, 0, 0, 0]\nclass = 1", fillcolor="#eb9e67"] ;
694 -> 706 ;
707 [label="tBodyAcc-mean()-Z <= -0.093\ngini = 0.5\nsamples = 4\nvalue = [2, 2, 0, 0, 0, 0]\nclass = 1", fillcolor="#ffffff"] ;
706 -> 707 ;
708 [label="gini = 0.0\nsamples = 2\nvalue = [2, 0, 0, 0, 0, 0]\nclass = 1", fillcolor="#e58139"] ;
707 -> 708 ;
709 [label="gini = 0.0\nsamples = 2\nvalue = [0, 2, 0, 0, 0, 0]\nclass = 2", fillcolor="#9de539"] ;
707 -> 709 ;
710 [label="tBodyAcc-mean()-Y <= -0.018\ngini = 0.165\nsamples = 11\nvalue = [10, 0, 1, 0, 0, 0]\nclass = 1", fillcolor="#e88e4d"] ;
706 -> 710 ;
711 [label="tBodyAcc-mean()-Y <= -0.018\ngini = 0.444\nsamples = 3\nvalue = [2, 0, 1, 0, 0, 0]\nclass = 1", fillcolor="#f2c09c"] ;
710 -> 711 ;
712 [label="gini = 0.0\nsamples = 2\nvalue = [2, 0, 0, 0, 0, 0]\nclass = 1", fillcolor="#e58139"] ;
711 -> 712 ;
713 [label="gini = 0.0\nsamples = 1\nvalue = [0, 0, 1, 0, 0, 0]\nclass = 3", fillcolor="#39e581"] ;
711 -> 713 ;
714 [label="gini = 0.0\nsamples = 8\nvalue = [8, 0, 0, 0, 0, 0]\nclass = 1", fillcolor="#e58139"] ;
710 -> 714 ;
715 [label="tBodyAcc-mean()-Z <= -0.035\ngini = 0.663\nsamples = 14\nvalue = [5, 2, 6, 1, 0, 0]\nclass = 3", fillcolor="#e9fcf1"] ;
645 -> 715 ;
716 [label="tBodyAcc-mean()-X <= 0.216\ngini = 0.408\nsamples = 7\nvalue = [2, 0, 5, 0, 0, 0]\nclass = 3", fillcolor="#88efb3"] ;
715 -> 716 ;
717 [label="tBodyAcc-mean()-Z <= -0.038\ngini = 0.444\nsamples = 3\nvalue = [2, 0, 1, 0, 0, 0]\nclass = 1", fillcolor="#f2c09c"] ;
716 -> 717 ;
718 [label="gini = 0.0\nsamples = 2\nvalue = [2, 0, 0, 0, 0, 0]\nclass = 1", fillcolor="#e58139"] ;
717 -> 718 ;
719 [label="gini = 0.0\nsamples = 1\nvalue = [0, 0, 1, 0, 0, 0]\nclass = 3", fillcolor="#39e581"] ;
717 -> 719 ;
720 [label="gini = 0.0\nsamples = 4\nvalue = [0, 0, 4, 0, 0, 0]\nclass = 3", fillcolor="#39e581"] ;
716 -> 720 ;
721 [label="tBodyAcc-mean()-X <= 0.225\ngini = 0.694\nsamples = 7\nvalue = [3, 2, 1, 1, 0, 0]\nclass = 1", fillcolor="#fae6d7"] ;
715 -> 721 ;
722 [label="tBodyAcc-mean()-X <= 0.217\ngini = 0.611\nsamples = 6\nvalue = [3, 2, 1, 0, 0, 0]\nclass = 1", fillcolor="#f8e0ce"] ;
721 -> 722 ;
723 [label="tBodyAcc-mean()-Y <= -0.012\ngini = 0.625\nsamples = 4\nvalue = [1, 2, 1, 0, 0, 0]\nclass = 2", fillcolor="#def6bd"] ;
722 -> 723 ;
724 [label="tBodyAcc-mean()-Y <= -0.015\ngini = 0.444\nsamples = 3\nvalue = [1, 2, 0, 0, 0, 0]\nclass = 2", fillcolor="#cef29c"] ;
723 -> 724 ;
725 [label="gini = 0.0\nsamples = 1\nvalue = [0, 1, 0, 0, 0, 0]\nclass = 2", fillcolor="#9de539"] ;
724 -> 725 ;
726 [label="tBodyAcc-mean()-X <= 0.209\ngini = 0.5\nsamples = 2\nvalue = [1, 1, 0, 0, 0, 0]\nclass = 1", fillcolor="#ffffff"] ;
724 -> 726 ;
727 [label="gini = 0.0\nsamples = 1\nvalue = [1, 0, 0, 0, 0, 0]\nclass = 1", fillcolor="#e58139"] ;
726 -> 727 ;
728 [label="gini = 0.0\nsamples = 1\nvalue = [0, 1, 0, 0, 0, 0]\nclass = 2", fillcolor="#9de539"] ;
726 -> 728 ;
729 [label="gini = 0.0\nsamples = 1\nvalue = [0, 0, 1, 0, 0, 0]\nclass = 3", fillcolor="#39e581"] ;
723 -> 729 ;
730 [label="gini = 0.0\nsamples = 2\nvalue = [2, 0, 0, 0, 0, 0]\nclass = 1", fillcolor="#e58139"] ;
722 -> 730 ;
731 [label="gini = 0.0\nsamples = 1\nvalue = [0, 0, 0, 1, 0, 0]\nclass = 4", fillcolor="#399de5"] ;
721 -> 731 ;
732 [label="tBodyAcc-mean()-Y <= -0.026\ngini = 0.751\nsamples = 327\nvalue = [115, 46, 48, 11, 14, 93]\nclass = 1", fillcolor="#fdf3ec"] ;
532 -> 732 ;
733 [label="tBodyAcc-mean()-Z <= -0.099\ngini = 0.768\nsamples = 110\nvalue = [37, 18, 29, 3, 12, 11]\nclass = 1", fillcolor="#fcf3eb"] ;
732 -> 733 ;
734 [label="tBodyAcc-mean()-X <= 0.251\ngini = 0.688\nsamples = 63\nvalue = [29, 10, 16, 2, 6, 0]\nclass = 1", fillcolor="#f8dcc8"] ;
733 -> 734 ;
735 [label="tBodyAcc-mean()-Z <= -0.107\ngini = 0.59\nsamples = 36\nvalue = [21, 8, 5, 1, 1, 0]\nclass = 1", fillcolor="#f3c4a3"] ;
734 -> 735 ;
736 [label="tBodyAcc-mean()-Y <= -0.039\ngini = 0.645\nsamples = 28\nvalue = [14, 8, 4, 1, 1, 0]\nclass = 1", fillcolor="#f7d9c4"] ;
735 -> 736 ;
737 [label="tBodyAcc-mean()-Y <= -0.04\ngini = 0.583\nsamples = 12\nvalue = [7, 1, 3, 1, 0, 0]\nclass = 1", fillcolor="#f3c7a7"] ;
736 -> 737 ;
738 [label="tBodyAcc-mean()-X <= 0.24\ngini = 0.48\nsamples = 10\nvalue = [7, 1, 1, 1, 0, 0]\nclass = 1", fillcolor="#eeab7b"] ;
737 -> 738 ;
739 [label="tBodyAcc-mean()-X <= 0.236\ngini = 0.667\nsamples = 3\nvalue = [1, 1, 1, 0, 0, 0]\nclass = 1", fillcolor="#ffffff"] ;
738 -> 739 ;
740 [label="gini = 0.0\nsamples = 1\nvalue = [1, 0, 0, 0, 0, 0]\nclass = 1", fillcolor="#e58139"] ;
739 -> 740 ;
741 [label="tBodyAcc-mean()-X <= 0.238\ngini = 0.5\nsamples = 2\nvalue = [0, 1, 1, 0, 0, 0]\nclass = 2", fillcolor="#ffffff"] ;
739 -> 741 ;
742 [label="gini = 0.0\nsamples = 1\nvalue = [0, 0, 1, 0, 0, 0]\nclass = 3", fillcolor="#39e581"] ;
741 -> 742 ;
743 [label="gini = 0.0\nsamples = 1\nvalue = [0, 1, 0, 0, 0, 0]\nclass = 2", fillcolor="#9de539"] ;
741 -> 743 ;
744 [label="tBodyAcc-mean()-X <= 0.248\ngini = 0.245\nsamples = 7\nvalue = [6, 0, 0, 1, 0, 0]\nclass = 1", fillcolor="#e9965a"] ;
738 -> 744 ;
745 [label="gini = 0.0\nsamples = 5\nvalue = [5, 0, 0, 0, 0, 0]\nclass = 1", fillcolor="#e58139"] ;
744 -> 745 ;
746 [label="tBodyAcc-mean()-X <= 0.249\ngini = 0.5\nsamples = 2\nvalue = [1, 0, 0, 1, 0, 0]\nclass = 1", fillcolor="#ffffff"] ;
744 -> 746 ;
747 [label="gini = 0.0\nsamples = 1\nvalue = [0, 0, 0, 1, 0, 0]\nclass = 4", fillcolor="#399de5"] ;
746 -> 747 ;
748 [label="gini = 0.0\nsamples = 1\nvalue = [1, 0, 0, 0, 0, 0]\nclass = 1", fillcolor="#e58139"] ;
746 -> 748 ;
749 [label="gini = 0.0\nsamples = 2\nvalue = [0, 0, 2, 0, 0, 0]\nclass = 3", fillcolor="#39e581"] ;
737 -> 749 ;
750 [label="tBodyAcc-mean()-Y <= -0.027\ngini = 0.609\nsamples = 16\nvalue = [7, 7, 1, 0, 1, 0]\nclass = 1", fillcolor="#ffffff"] ;
736 -> 750 ;
751 [label="tBodyAcc-mean()-Y <= -0.031\ngini = 0.604\nsamples = 13\nvalue = [4, 7, 1, 0, 1, 0]\nclass = 2", fillcolor="#def6bd"] ;
750 -> 751 ;
752 [label="tBodyAcc-mean()-X <= 0.244\ngini = 0.667\nsamples = 9\nvalue = [4, 3, 1, 0, 1, 0]\nclass = 1", fillcolor="#fbeade"] ;
751 -> 752 ;
753 [label="gini = 0.0\nsamples = 3\nvalue = [3, 0, 0, 0, 0, 0]\nclass = 1", fillcolor="#e58139"] ;
752 -> 753 ;
754 [label="tBodyAcc-mean()-Y <= -0.036\ngini = 0.667\nsamples = 6\nvalue = [1, 3, 1, 0, 1, 0]\nclass = 2", fillcolor="#d8f5b0"] ;
752 -> 754 ;
755 [label="tBodyAcc-mean()-Y <= -0.037\ngini = 0.375\nsamples = 4\nvalue = [1, 3, 0, 0, 0, 0]\nclass = 2", fillcolor="#beee7b"] ;
754 -> 755 ;
756 [label="tBodyAcc-mean()-Z <= -0.124\ngini = 0.5\nsamples = 2\nvalue = [1, 1, 0, 0, 0, 0]\nclass = 1", fillcolor="#ffffff"] ;
755 -> 756 ;
757 [label="gini = 0.0\nsamples = 1\nvalue = [1, 0, 0, 0, 0, 0]\nclass = 1", fillcolor="#e58139"] ;
756 -> 757 ;
758 [label="gini = 0.0\nsamples = 1\nvalue = [0, 1, 0, 0, 0, 0]\nclass = 2", fillcolor="#9de539"] ;
756 -> 758 ;
759 [label="gini = 0.0\nsamples = 2\nvalue = [0, 2, 0, 0, 0, 0]\nclass = 2", fillcolor="#9de539"] ;
755 -> 759 ;
760 [label="tBodyAcc-mean()-X <= 0.248\ngini = 0.5\nsamples = 2\nvalue = [0, 0, 1, 0, 1, 0]\nclass = 3", fillcolor="#ffffff"] ;
754 -> 760 ;
761 [label="gini = 0.0\nsamples = 1\nvalue = [0, 0, 0, 0, 1, 0]\nclass = 5", fillcolor="#8139e5"] ;
760 -> 761 ;
762 [label="gini = 0.0\nsamples = 1\nvalue = [0, 0, 1, 0, 0, 0]\nclass = 3", fillcolor="#39e581"] ;
760 -> 762 ;
763 [label="gini = 0.0\nsamples = 4\nvalue = [0, 4, 0, 0, 0, 0]\nclass = 2", fillcolor="#9de539"] ;
751 -> 763 ;
764 [label="gini = 0.0\nsamples = 3\nvalue = [3, 0, 0, 0, 0, 0]\nclass = 1", fillcolor="#e58139"] ;
750 -> 764 ;
765 [label="tBodyAcc-mean()-X <= 0.244\ngini = 0.219\nsamples = 8\nvalue = [7, 0, 1, 0, 0, 0]\nclass = 1", fillcolor="#e99355"] ;
735 -> 765 ;
766 [label="gini = 0.0\nsamples = 6\nvalue = [6, 0, 0, 0, 0, 0]\nclass = 1", fillcolor="#e58139"] ;
765 -> 766 ;
767 [label="tBodyAcc-mean()-Y <= -0.038\ngini = 0.5\nsamples = 2\nvalue = [1, 0, 1, 0, 0, 0]\nclass = 1", fillcolor="#ffffff"] ;
765 -> 767 ;
768 [label="gini = 0.0\nsamples = 1\nvalue = [0, 0, 1, 0, 0, 0]\nclass = 3", fillcolor="#39e581"] ;
767 -> 768 ;
769 [label="gini = 0.0\nsamples = 1\nvalue = [1, 0, 0, 0, 0, 0]\nclass = 1", fillcolor="#e58139"] ;
767 -> 769 ;
770 [label="tBodyAcc-mean()-Y <= -0.041\ngini = 0.705\nsamples = 27\nvalue = [8, 2, 11, 1, 5, 0]\nclass = 3", fillcolor="#e0fbeb"] ;
734 -> 770 ;
771 [label="tBodyAcc-mean()-Y <= -0.043\ngini = 0.722\nsamples = 6\nvalue = [1, 2, 0, 1, 2, 0]\nclass = 2", fillcolor="#ffffff"] ;
770 -> 771 ;
772 [label="tBodyAcc-mean()-X <= 0.252\ngini = 0.625\nsamples = 4\nvalue = [1, 0, 0, 1, 2, 0]\nclass = 5", fillcolor="#d5bdf6"] ;
771 -> 772 ;
773 [label="gini = 0.0\nsamples = 1\nvalue = [0, 0, 0, 1, 0, 0]\nclass = 4", fillcolor="#399de5"] ;
772 -> 773 ;
774 [label="tBodyAcc-mean()-Z <= -0.136\ngini = 0.444\nsamples = 3\nvalue = [1, 0, 0, 0, 2, 0]\nclass = 5", fillcolor="#c09cf2"] ;
772 -> 774 ;
775 [label="gini = 0.0\nsamples = 1\nvalue = [1, 0, 0, 0, 0, 0]\nclass = 1", fillcolor="#e58139"] ;
774 -> 775 ;
776 [label="gini = 0.0\nsamples = 2\nvalue = [0, 0, 0, 0, 2, 0]\nclass = 5", fillcolor="#8139e5"] ;
774 -> 776 ;
